tree
version=v3
num_class=1
num_tree_per_iteration=1
label_index=0
max_feature_idx=10
objective=binary sigmoid:1
feature_names=Column_0 Column_1 Column_2 Column_3 Column_4 Column_5 Column_6 Column_7 Column_8 Column_9 Column_10
feature_infos=[0:0.99996352818234369] [0:1] [0:61] [0:1] [0:125] [0:1] [0:1] [0:1] [0:1] [0:1] [0:1.3333333333333333]
tree_sizes=3903 3918 3909 3907 3906 3937 3925 3923 3887 3936 3916 3947 3944 3913 3941 3906 3928 3931 3971 3979 3934 3917 3930 3921 3908 3950 3913 3920 3951 3930 3936 3910 3935 3917 3943 3911 3923 3916 3931 3952 3945 3949 3901 3875 3929 3925 3913 3965 3923 3935 3973 3980 3923 3936 3992 3966 3941 3947 3947 3977 3936 3927 3931 3933 3904 3935 3953 3936 3952 3886 3951 3947 3948 3974 3962 3922 3966 3955 3952 3945 3971 3927 3939 3954 3984 3951 3994 3973 3941 3989 3976 3981 3946 4007 3962 3878 3969 3929 4004 3991 3987 3980 3975 3931 3978 3951 3976 3947 4007 3948 3955 3933 4000 3920 3980 3932 3976 3954 3963 3993 3897 3971 3964 3958 3933 3891 3918 3945 3988 3938 3981 3936 3967 3928 3915 3992 3953 3961 3966 3988 3915 3961 3959 3986 3974 3986 3964 3946 3912 3938 3995 3980 3964 3922 3960 3956 3999 3984 3985 3981 3972 3934 3983 3972 3920 3969 3955 3943 3926 3962 3977 3972 3950 3966 3930 3918 3956 3956 3957 3962 4006 3951 3910 3983 3912 3994 3931 3968 3963 3973 3973 3994 3942 3997 3990 3977 3986 4008 4018 3982 3990 3992 3989 3953 3982 3963 3979 3944 3969 3980 3954 3983 3978 3989 4011 4007 3997 3953 3974 4004 3984 3971 3971 3975 3980 4003 4000 3962 3974 3985 4015 3952 3970 3981 3961 3978 3968 3995 3996 3956 4007 3974 3965 3984 3979 3987 3997 3948 4014 4004 3983 3973 3984 3967 3957 3984 4010 3982 3911 3963 3952 3942 3998 3978 3967 3970 4028 3936 3995 3932 3979 4001 3957 3997 3940 3990 3989 3964 3992 3963 3948 3988 3974 3956 3953 3959 4003 3944 4001 4007 3985 3945 4011 3992 4005 3965 3981 4048 4002 3979 4001 3997 3972 4025 3990 3980 4001 3960 4015 3963 3989 3991 3975 3980 3978 3997 4001 3941 3953 3982 3972 3954 4013 4006 3967 3974 4003 3984 4035 3979 3972 3999 3999 4017 3997 4014 3973 3996 3962 3980 4003 3998 3960 3976 3944 4022 3989 4000 3958 3974 4022 4001 3999 3966 3979 3976 4019 3969 3941 3956 4040 3984 3997 3950 3945 3988 3983 3986 3959 3994 3952 3999 3969 3995 3996 3997 3993 4002 4023 4017 3981 3995 3961 4004 3965 3974 4012 3950 4008 3992 3975 3988 3999 4024 3985 3998 3976 4019 4013 3975 4002 4020 3989 4000 3986 3993 4028 4021 4022 3991 3989 3982 3990 3990 4016 3938 3992 3957 3946 4043 3961 3941 4008 3968 3977 3992 4020 3969 3989 3996 4002 3986 3974 3950 3999 3983 3976 3997 4020 3997 3976 4010 3976 3967 3995 3963 4025 3974 4016 4017 4006 4017 3938 3984 4022 3971 3995 4043 3973 4040 3949 3972 3999 3970 3950 4039 3991 3980 4024 4033 3980 4022 4016 3957 4038 4045 3983 4010 4044 3955 4004 4032 4042 3964 3942 4032 3978 3998 3964 3968 3981 4025 3967 3989 3996 4028 4049 3975 3995 3985 4018 4015 3993 3972 3965 4043 3902 4003 3994 3975 3996 4009 4011 4004 4037 3990 3990 4022 3928 3952 3920 3982 4041 3999 3927 3947 4018 3993 3917 4006 4009 3953 3981 4016 3997 3993 3985 3929 3994 3974 4028 3980 3985 3973 3978 3958 3975 3941 3984 4019 4022 3929 3989 4047 3959 3994 3920 3998 4007 4008 4035 3999 4029 3964 3989 3957 3968 4028 4007 3985 4013 3970 3980 4010 3982 4005 4000 4006 3983 4015 3986 3978 3989 4005 3967 3968 3968 3964 3994 3983 3953 4011 3965 3999 4020 3985 4013 3989 3985 4004 3957 4005 3999 3987 3990 3980 3989 3919 3998 3959 3992 3967 3955 3983 3998 3954 3966 3922 3971 3992 3962 3999 3987 3965 3966 3982 3958 3949 3974 3905 3987 4004 3964 3990 3985 3994 3972 3989 3990 3978 3955 3976 3944 4007 3972 3975 3975 3965 4003 3983 3980 4005 3945 3952 3982 3940 3986 3998 3988 4007 4000 3960 3956 3966 3963 3941 3996 3958 3991 3959 3982 3959 3958 3994 4015 3957 4021 4017 3996 3989 3939 3987 3993 3961 4015 4006 3952 3988 4010 3933 3977 3992 3986 3953 3955 4011 4012 4015 3969 3955 3963 3989 4031 3995 3955 3978 3955 4013 3991 3994 4015 3972 3994 3986 3997 3935 3981 4040 3966 4001 3978 4008 4010 4021 3953 4005 3966 3960 3957 3996 3973 3957 3920 3996 4002 3975 3951 4019 3988 3965 3987 3994 3943 3973 3987 3977 3992 3982 3972 3960 3998 4027 3958 3988 3992 4031 4011 3966 3955 3988 4022 3989 3974 3927 3959 3975 3912 3979 4022 3983 3966 4004 3979 3989 3986 4001 3959 3961 3933 3972 3973 3964 3944 3886 3999 3958 3943 3912 3988 3986 3956 3991 4004 3957 3965 3968 3974 3994 3967 3936 3969 3940 3984 3951 3971 3948 3977 3947 3944 3994 3923 3960 3939 4020 4008 3954 3984 3988 3989 4012 3960 3967 3993 3979 4000 3976 3924 3981 3981 3969 3975 3940 4004 3998 3986 3931 3968 4011 3999 3923 4014 3993 3927 3962 3982 3969 3887 3977 3955 3927 3957 3998 3962 3931 3945 3888 4018 3918 3962 3909 3952 3985 3978 3904 3990 3993 4005 3969 3938 4001 3951 3974 4007 3955 3927 3991 3972 4010 3921 3930 3959 3980 4006 3989 3969 3978 3981 3922 3977 3946 3926 3982 3800 3927 3973 3936 3999 3925 4016 3932 4010 3976 3919 3960 3952 3952 3965 3925 3957 3980 3931 3961 3891 3942 3995 3966 3972 3943 3929 3957 3924 3994 3957 3962 3941 3964 3987 3942 3968 3932 3936 3961 3925 3954 3937 3878 3912 3915 3930 3958 3966 3966 3967 3915 3985 3905 3983 3932 3986 3883 3986 3977 3986 3973 3955 3863 3965 3922 3930 3956 3841 3952 3989 3914 3877 3954 3914 3946 3890 3980 3975 3942 3989 3982 3878 3971 3989 3904 3954 3908 3976 3916 3952 3947 3925 3909 3910 3920 3145 3956 3875 3880 3952 3932 3986 3948 3965 3951 3898 3920

Tree=0
num_leaves=35
num_cat=0
split_feature=10 1 4 1 1 0 10 0 8 1 0 5 4 4 0 9 2 0 0 4 1 1 0 4 6 8 6 9 0 4 6 0 1 9
split_gain=23585.7 12252.6 6116.88 4929.4 4922.84 4109.99 1718.3 1407.19 1320.35 1302.33 1076.24 863.991 766.716 753.976 633.807 579.713 499.211 433.443 396.231 364.535 351.436 346.375 305.196 293.344 282.787 275.641 251.249 235.241 228.505 227.311 223.985 198.658 192.749 192.275
threshold=0.45000000000000007 0.95475020475020489 10.500000000000002 0.44562647754137119 0.97700845665961955 0.044268072076603361 0.90000000000000013 0.022027413182479857 inf 0.74543037554004665 0.089908413115556196 1.0000000180025095e-35 9.5000000000000018 1.0000000180025095e-35 0.026881930268567507 inf 11.500000000000002 0.081617649232190573 0.65795067160801401 50.500000000000007 0.95861872146118732 0.8527000964320155 0.022027413182479857 48.500000000000007 inf inf inf 1.0000000180025095e-35 0.033226780471309045 12.500000000000002 1.0000000180025095e-35 0.022864856912730182 0.97700845665961955 1.0000000180025095e-35
decision_type=2 2 8 2 2 2 2 2 8 2 2 10 8 10 2 8 2 2 2 10 2 2 2 8 8 8 8 10 2 8 10 2 2 10
left_child=1 3 5 13 6 20 22 30 -7 14 -6 18 17 28 -8 -11 25 -3 -9 -17 31 29 -4 -24 -15 -12 27 -10 -1 -13 -5 -2 -14 -16
right_child=2 12 4 7 10 8 9 11 26 15 16 21 32 24 33 19 -18 -19 -20 -21 -22 -23 23 -25 -26 -27 -28 -29 -30 -31 -32 -33 -34 -35
leaf_value=0.001590643428375298 0.012247804661087908 0.017080555841681489 0.016493778437487189 0.0055091649817965299 0.021987634597334316 -0.0096702130174515719 0.014338150354628605 -0.0010853531898760349 -0.0014975831554929261 0.01432738448221558 0.0025640984110894835 -0.0084342970020321456 0.010625179889813988 -0.012171118092370366 0.0076080072886012678 0.0028408602889592738 0.017875517084887518 0.00026788850735992012 0.0079726989046854206 0.021923327348148173 0.017751520037220182 0.00092091976958303583 0.0089203182252525354 0.014048219193993561 -0.0074924786265512262 0.012585533080814726 0.0039210865013288541 0.01392178626999835 -0.0062668931670513683 -0.0044864895626991197 0.00079426119383044225 0.006058424518032149 0.019589182144398372 0.018578124931272123
leaf_weight=500.74794055521488 1462.743984118104 245.49899032711983 2211.4909047186375 2799.2384874671698 4461.2316521257162 1667.7431410104036 2481.4897942841053 8659.714384868741 2943.2378952354193 504.9979230761528 388.74840117990971 2459.4898847639561 267.49889984726906 6268.9742173552513 4248.9825250506401 5839.7259827405214 1660.2431718558073 407.99832201004028 511.24789737164974 101.74958153069019 803.49669542908669 797.99671804904938 1872.9922968745232 2763.4886344969273 1630.9932921528816 931.99616694450378 1594.4934422671795 102.24957947432995 1423.2441465705633 3595.2352137416601 1573.9935265779495 804.24669234454632 2375.4902302324772 165.99931728839874
leaf_count=2003 5851 982 8846 11197 17845 6671 9926 34639 11773 2020 1555 9838 1070 25076 16996 23359 6641 1632 2045 407 3214 3192 7492 11054 6524 3728 6378 409 5693 14381 6296 3217 9502 664
internal_value=0.00405508 -0.0020217 0.00955819 -0.0040186 0.0119265 0.00257994 0.00936388 -0.0012156 -0.00203891 0.00727383 0.0188787 -0.00258779 0.0162845 -0.0098381 0.0102943 0.0040426 0.0142252 0.00658339 -0.000580253 0.00316812 0.012068 -0.0052742 0.013436 0.0119771 -0.0112055 0.00963517 0.000704454 -0.000979256 -0.0042226 -0.00609047 0.00381239 0.0100527 0.0186826 0.00802102
internal_weight=0 33517.4 37011.3 30220.9 27633.1 9378.21 20190.9 20396.9 6307.72 13342.9 7442.22 16023.7 3296.49 9823.96 6896.47 6446.47 2980.99 653.497 9170.96 5941.48 3070.49 6852.72 6847.97 4636.48 7899.97 1320.74 4639.98 3045.49 1923.99 6054.73 4373.23 2266.99 2642.99 4414.98
internal_count=282116 134070 148046 120884 110533 37513 80764 81588 25231 53372 29769 64095 13186 39296 27586 25786 11924 2614 36684 23766 12282 27411 27392 18546 31600 5283 18560 12182 7696 24219 17493 9068 10572 17660
is_linear=0
shrinkage=1


Tree=1
num_leaves=35
num_cat=0
split_feature=10 1 3 1 1 0 10 1 0 8 3 3 5 3 0 0 9 0 0 0 1 8 4 0 4 4 0 2 0 4 2 3 1 9
split_gain=23117 12009.1 6987.62 6118.64 4831.59 3634.33 1990.76 1571.43 1379.18 1114.6 1017.02 922.799 846.819 745.809 726.824 645.611 414.815 409.037 388.346 366.665 339.489 321.655 296.133 292.481 292.136 288.692 286.461 238.22 230.354 222.803 202.424 199.053 198.55 193.545
threshold=0.45000000000000007 0.95475020475020489 0.61034790365744884 0.97700845665961955 0.44562647754137119 0.054750237777959593 0.90000000000000013 0.74543037554004665 0.022027413182479857 inf 0.63202878992352685 0.95861872146118732 1.0000000180025095e-35 1.0000000180025095e-35 0.033812353157901466 0.068541389144212844 inf 0.082991627318387884 0.65795067160801401 0.19187997162515322 0.8527000964320155 inf 9.5000000000000018 0.017492654247075638 48.500000000000007 50.500000000000007 0.030396325291962113 5.5000000000000009 0.033226780471309045 12.500000000000002 8.5000000000000018 0.96323330629899984 0.97700845665961955 1.0000000180025095e-35
decision_type=2 2 8 2 2 2 2 2 2 8 8 8 10 10 2 2 8 2 2 2 2 8 8 2 8 8 2 2 2 8 2 10 2 10
left_child=1 4 5 6 13 26 23 14 -6 -7 17 15 18 28 -8 -5 22 -3 -10 -13 29 -17 -9 -4 -25 -18 -2 -15 -1 -14 -11 -21 -12 -16
right_child=2 10 3 11 8 9 7 16 12 30 32 19 20 27 33 21 25 -19 -20 31 -22 -23 -24 24 -26 -27 -28 -29 -30 -31 -32 -33 -34 -35
leaf_value=-0.0022670922588291305 0.0093080310785370827 0.011750045676648991 0.012626458113422728 0.014826727737000989 -0.0002402553570861965 -0.014743150887605763 0.0096996992398550932 -0.0054100730604945595 -0.0050890054680263874 -0.0076013916942262571 0.0067652981339312605 0.018779363587765684 -0.012364652244965382 -0.016153845869332821 0.002926035316728783 -0.0038174123620972901 -0.0047349089750766673 -0.004559838470594023 0.0038785008398156801 0.01034733657688917 -0.003102806485214436 0.0083752310850728883 0.010600360218180782 0.0052886140618194537 0.010103265594061755 -1.7729268039163635e-05 0.0018344283510374527 -0.012223561408333999 -0.010197488680982927 -0.00845615925914729 -0.0028965512464034643 0.01818780286407054 0.015856247602548498 0.013766629489506419
leaf_weight=494.74967561662197 1763.6620013564825 236.73184333741665 1928.623905390501 974.64088045060635 4373.2285288125277 1515.2119458466768 3111.6093229651451 149.4964796602726 8659.747419193387 1454.9933899492025 268.24222248792648 4369.5282194316387 2459.4563139081001 5808.0629505068064 4140.6934808194637 386.73506236076355 1840.240253418684 438.24334155023098 511.24186374247074 967.19275933504105 797.99980974197388 490.72306524217129 506.47479136288166 2190.9521822184324 2971.849434107542 4398.9824021458626 723.73330534994602 2105.9320750534534 1414.9860838055611 3595.2319993376732 2464.9827763736248 488.22329451143742 2353.0293046832085 171.48710083961487
leaf_count=1979 7055 947 7715 3899 17493 6061 12447 598 34639 5820 1073 17480 9838 23233 16563 1547 7361 1753 2045 3869 3192 1963 2026 8764 11888 17596 2895 8424 5660 14381 9860 1953 9413 686
internal_value=0 -0.0060161 0.00544828 0.00771599 -0.00799301 -0.00287737 0.0049695 0.00282348 -0.00521798 -0.0074593 0.012108 0.0153753 -0.00657644 -0.0137546 0.00601611 0.00922485 -0.000613794 0.00115989 -0.00458896 0.0173306 -0.00923604 0.00300043 0.00694977 0.00930251 0.00806039 -0.00140926 0.00713407 -0.0151083 -0.00814373 -0.0100442 -0.00464327 0.0129792 0.0149266 0.00335769
internal_weight=0 33516.9 37010 29087.5 30220.6 7922.58 21410.4 14319 20396.9 5435.19 3296.25 7677.04 16023.7 9823.73 7423.79 1852.1 6895.19 674.975 9170.99 5824.94 6852.69 877.458 655.971 7091.43 5162.8 6239.22 2487.4 7914 1909.74 6054.69 3919.98 1455.42 2621.27 4312.18
internal_count=282116 134070 148046 116355 120884 31691 85644 57277 81588 21741 13186 30711 64095 39296 29696 7409 27581 2700 36684 23302 27411 3510 2624 28367 20652 24957 9950 31657 7639 24219 15680 5822 10486 17249
is_linear=0
shrinkage=0.01


Tree=2
num_leaves=35
num_cat=0
split_feature=10 1 3 1 1 0 10 1 0 8 3 3 5 3 0 0 9 0 0 0 1 8 1 4 0 4 0 6 4 0 6 4 6 3
split_gain=22658.6 11771.3 6849.31 5999.43 4692.21 3562.16 1951.46 1540.25 1341.22 1092.67 981.802 904.976 827.46 731.298 712.496 633.009 406.584 392.366 379.59 359.734 317.266 315.277 296.959 290.275 287.447 282.947 280.809 276.375 265.941 225.975 223.098 218.443 200.094 195.185
threshold=0.45000000000000007 0.95024752475247531 0.61034790365744884 0.97700845665961955 0.44562647754137119 0.054750237777959593 0.90000000000000013 0.74543037554004665 0.022027413182479857 inf 0.63202878992352685 0.95861872146118732 1.0000000180025095e-35 1.0000000180025095e-35 0.033812353157901466 0.068541389144212844 inf 0.08432313812249688 0.65795067160801401 0.19187997162515322 0.8527000964320155 inf 0.97014260249554385 9.5000000000000018 0.020806662345169879 50.500000000000007 0.030396325291962113 inf 48.500000000000007 0.022864856912730182 1.0000000180025095e-35 12.500000000000002 inf 0.96323330629899984
decision_type=2 2 8 2 2 2 2 2 2 8 8 8 10 10 2 2 8 2 2 2 2 8 2 8 2 8 2 8 8 2 10 8 8 10
left_child=1 4 5 6 13 26 24 14 30 -7 17 15 18 29 -8 -5 23 -3 -10 -13 31 -17 -12 -9 -4 -18 -2 -15 -26 -1 -6 -14 -11 -21
right_child=2 10 3 11 8 9 7 16 12 32 22 19 20 27 -16 21 25 -19 -20 33 -22 -23 -24 -25 28 -27 -28 -29 -30 -31 -32 -33 -34 -35
leaf_value=-0.00079129301388589286 0.0092157354872218558 0.011231115400329594 0.012171995091312077 0.014681548650419962 0.0014207464004397452 -0.01459726392178878 0.0096035511107014394 -0.0053560446041544512 -0.005067599381610546 -0.0063159575560612522 0.0047780843075235164 0.018596792797334515 -0.012242122149734063 -0.015913246036399476 0.0033241738349683095 -0.0037792188988763522 -0.0046875532898808473 -0.004513634679117166 0.0038199388751289148 0.010244948479545166 -0.0031199855425395411 0.0082920912983921596 0.015570558342966386 0.010495436384090302 0.0050851464572310625 -1.7552244055073603e-05 0.0018160987594866441 -0.011291885270455755 0.0098325396219287094 -0.009690762633498504 -0.0032996352596377037 -0.0083719101471528643 -0.0016263214221557377 0.018009561972231074
leaf_weight=349.4999583363533 1763.5135789811611 245.1994012594223 2242.3053546696901 974.43780781328678 2785.2307423949242 1515.0532655864954 3111.336686745286 149.49547228217125 8621.6677765846252 2482.7205989360809 285.48365269601345 4368.3075222969055 2459.2340719103813 6279.0782811045647 4312.1046097874641 386.73798523843288 1840.2441146671772 445.99441127479076 508.73213924467564 967.091807320714 768.24908417463303 490.68797317147255 2414.2682390511036 506.42393387854099 2035.1562872827053 4398.9826774895191 723.72846677899361 1633.7900781780481 2813.3382145911455 1560.1540874540806 1562.9999068379402 3595.0993515998125 1437.2450027763844 488.12612198293209
leaf_count=1398 7055 981 8971 3899 11141 6061 12447 598 34487 9931 1142 17480 9838 25121 17249 1547 7361 1784 2035 3869 3073 1963 9660 2026 8141 17596 2895 6536 11255 6241 6252 14381 5749 1953
internal_value=0 -0.00595633 0.00539425 0.00763954 -0.00794475 -0.00284871 0.00492005 0.00279532 -0.00519936 -0.00738495 0.0117073 0.0152249 -0.00654127 -0.0136187 0.00595624 0.00913378 -0.000607661 0.00107115 -0.00457225 0.0171615 -0.00917607 0.00297053 0.0144299 0.00688082 0.00921031 -0.00139517 0.00706318 -0.0149593 0.00784017 -0.00806266 -0.000275833 -0.00994431 -0.00459686 0.0128512
internal_weight=0 33514.7 37007 29084.8 30123.7 7922.26 21409.4 14318.6 20301.2 5435.02 3390.95 7675.39 15953 9822.52 7423.44 1851.86 6895.15 691.194 9130.4 5823.53 6822.58 877.426 2699.75 655.919 7090.8 6239.23 2487.24 7912.87 4848.49 1909.65 4348.23 6054.33 3919.97 1455.22
internal_count=282116 134070 148046 116355 120503 31691 85644 57277 81207 21741 13567 30711 63814 39296 29696 7409 27581 2765 36522 23302 27292 3510 10802 2624 28367 24957 9950 31657 19396 7639 17393 24219 15680 5822
is_linear=0
shrinkage=0.01


Tree=3
num_leaves=35
num_cat=0
split_feature=10 1 3 1 1 0 10 1 0 8 3 3 6 3 0 0 9 0 0 0 1 8 4 0 4 0 6 4 0 6 4 2 3 1
split_gain=22210.5 11539.7 6714.11 5884.07 4644.71 3491.55 1913.1 1509.73 1325.13 1071.4 977.726 887.858 731.284 717.326 698.527 620.774 398.531 393.247 363.159 353.148 318.536 309.035 284.55 281.905 277.319 275.294 271.136 260.759 222.248 215.148 213.582 198.308 191.486 191.315
threshold=0.45000000000000007 0.95475020475020489 0.61034790365744884 0.97700845665961955 0.44562647754137119 0.054750237777959593 0.90000000000000013 0.74543037554004665 0.022027413182479857 inf 0.63202878992352685 0.95861872146118732 inf 1.0000000180025095e-35 0.033812353157901466 0.068541389144212844 inf 0.082991627318387884 0.65795067160801401 0.19187997162515322 0.84877072612921689 inf 9.5000000000000018 0.020806662345169879 50.500000000000007 0.030396325291962113 inf 48.500000000000007 0.033226780471309045 1.0000000180025095e-35 12.500000000000002 8.5000000000000018 0.96323330629899984 0.97700845665961955
decision_type=2 2 8 2 2 2 2 2 2 8 8 8 8 10 2 2 8 2 2 2 2 8 8 2 8 2 8 8 2 10 8 2 10 2
left_child=1 4 5 6 13 25 23 14 29 -7 17 15 20 28 -8 -5 22 -3 -14 -13 30 -17 -9 -4 -18 -2 -15 -25 -1 -6 -10 -11 -21 -12
right_child=2 10 3 11 8 9 7 16 12 31 33 19 18 26 -16 21 24 -19 -20 32 -22 -23 -24 27 -26 -27 -28 -29 -30 -31 -32 -33 -34 -35
leaf_value=-0.002210409465865927 0.0091247381329680275 0.011524188589624864 0.012052796828423187 0.014539343046831686 0.0014275468365692299 -0.014454360049159305 0.0095087900857860636 -0.0053026324700153372 -0.011725592525305067 -0.0074789160520246133 0.0066259355240062779 0.018419162095043556 -0.0049633933852822505 -0.015758551404812381 0.0032909994302134601 -0.0037414352496869165 -0.0046407220356014306 -0.0044695076780083363 0.0039885106378238213 0.010144099705585557 -0.0030288906621749345 0.0082100561281386233 0.010392118273178442 0.0050344974090541774 -1.7376414012215733e-05 0.0017979554868149917 -0.011180765011432219 0.0097356172349941511 -0.010000244206745269 -0.0031934203028853385 -0.0080330222005209808 -0.0028220937290380681 0.017835951827586079 0.015550598182051168
leaf_weight=494.74590794742107 1763.2914139330387 236.6532506942749 2241.839388564229 974.1312355697155 2799.2183614224195 1514.7341059148312 3110.9225277602673 149.49232134222984 2604.1980158388615 1454.9463202804327 268.20765192806721 4366.3405899256468 8134.3301652818918 6277.3192872405052 4312.0180183798075 386.7381155192852 1840.2275885939598 438.24095138907433 479.71443277597427 966.94088225066662 860.73582646250725 490.63628233969212 506.34555578231812 2035.0759619027376 4398.9826906323433 723.72247470915318 1633.5295344144106 2812.9356055408716 1414.7580268979073 1573.9969062209129 3943.3827999979258 2464.9582453519106 487.95041300356388 2351.7383313626051
leaf_count=1979 7055 947 8971 3899 11197 6061 12447 598 10419 5820 1073 17480 32539 25121 17249 1547 7361 1753 1919 3869 3443 1963 2026 8141 17596 2895 6536 11255 5660 6296 15775 9860 1953 9413
internal_value=0 -0.00589746 0.00534101 0.00756425 -0.00783527 -0.00282044 0.00487121 0.00276749 -0.0051146 -0.00731162 0.0118729 0.0150779 -0.00644627 -0.0134855 0.00589708 0.00904422 -0.000601594 0.00113811 -0.00446471 0.0169966 -0.0087501 0.00294099 0.00681285 0.00911944 -0.00138122 0.0069932 -0.0148136 0.00776255 -0.00798267 -0.000235427 -0.00950199 -0.00455096 0.0127256 0.0146376
internal_weight=0 33510.8 37002.2 29080.6 30215.9 7921.65 21407.8 14318 20395.6 5434.64 3294.84 7672.74 16022.4 9820.35 7422.94 1851.51 6895.05 674.894 8614.04 5821.23 7408.32 877.374 655.838 7089.85 6239.21 2487.01 7910.85 4848.01 1909.5 4373.22 6547.58 3919.9 1454.89 2619.95
internal_count=282116 134070 148046 116355 120884 31691 85644 57277 81588 21741 13186 30711 64095 39296 29696 7409 27581 2700 34458 23302 29637 3510 2624 28367 24957 9950 31657 19396 7639 17493 26194 15680 5822 10486
is_linear=0
shrinkage=0.01


Tree=4
num_leaves=35
num_cat=0
split_feature=1 3 1 0 0 4 3 9 0 0 0 8 9 6 0 3 6 9 6 1 0 3 9 6 8 2 4 1 2 8 8 9 2 3
split_gain=16991.8 9820.35 6136.83 4313.35 2847.72 1960.7 1603.79 1142.53 874.084 834.892 645.43 599.202 587.763 584.468 539.546 522.196 498.922 455.691 382.685 313.084 269.394 258.974 244.384 236.332 223.039 222.58 213.654 210.545 207.512 202.996 177.994 174.068 168.123 163.887
threshold=0.96449579831932786 0.66797900262467202 0.40224719101123602 0.026415217248933379 0.076639793741492018 11.500000000000002 0.067231638418079109 1.0000000180025095e-35 0.022864856912730182 0.65795067160801401 0.089908413115556196 inf 1.0000000180025095e-35 1.0000000180025095e-35 0.033226780471309045 0.95861872146118732 inf 1.0000000180025095e-35 inf 0.9826073805202663 0.01785398635645576 0.98332870241733827 1.0000000180025095e-35 inf inf 27.500000000000004 50.500000000000007 0.70647653000594191 11.500000000000002 inf 1.0000000180025095e-35 1.0000000180025095e-35 9.5000000000000018 0.56440422322775274
decision_type=2 8 2 2 2 8 10 10 2 2 2 8 10 10 2 8 8 10 8 2 2 10 10 8 8 2 10 2 2 8 8 8 2 10
left_child=2 4 6 17 -2 13 14 8 23 12 19 -6 18 31 -1 24 30 20 -7 25 26 28 29 -8 -12 -3 27 -4 -17 -15 -10 -5 -13 -18
right_child=1 10 3 5 11 9 7 -9 16 -11 15 32 -14 22 -16 21 33 -19 -20 -21 -22 -23 -24 -25 -26 -27 -28 -29 -30 -31 -32 -33 -34 -35
leaf_value=0.0049085657531725124 0.0098844795459102144 0.014584420859505405 0.0060262298904608935 -0.011656442504336546 -0.014800602054661003 -0.0035894000563490838 -0.0075594706165748194 0.0057814455123596422 -0.01771614266804598 0.006866276147556109 -0.0018516170719671643 -0.0091366638591140747 0.0090748500055164352 -0.015308962301883562 -0.0048065234466362705 0.0082739844774783067 -0.012108144007404332 0.012071007304430267 -0.00084097083511529313 0.017561230631397428 0.0013427907319326687 0.017801470104988268 0.0024213802612505844 3.5709440825964395e-05 0.0088884268295945489 -0.0015189311882230516 0.017967510429924949 0.0029114505053027596 0.014433139217329206 -0.0091605999134325641 -0.013359127951537614 -0.0037470557817539277 -0.0026901292435984152 -0.0055371381785068651
leaf_weight=837.02794401347637 1103.1969181001186 204.89916977286339 4286.4171988666058 300.16302697360516 1109.0992821753025 8404.4609560221434 1594.5461522191763 412.51856328547001 1191.548567160964 1206.5674093961716 317.20711453258991 684.1932008266449 496.35342855751514 648.21150961518288 1802.2058320045471 975.21845126152039 606.00492750108242 686.74452131986618 12757.250960603356 5799.0595645606518 3476.7512301206589 1031.8473259657621 159.45202939212322 550.96847365796566 494.50485743582249 147.44753932952881 118.4632680118084 4399.9833261221647 1250.6592713147402 3155.1688183397055 4455.6102174222469 3826.6387130022049 991.4437647908926 1019.10506080091
leaf_count=3349 4415 820 17151 1201 4439 33624 6383 1651 4770 4827 1269 2737 1986 2594 7211 3904 2425 2748 51035 23227 13910 4132 638 2205 1979 590 474 17603 5007 12624 17835 15309 3966 4078
internal_value=0 0.0098149 -0.00245559 -0.000697864 -0.00371186 -0.00272624 -0.00864687 -0.0105051 -0.0112187 -0.00122916 0.0149605 -0.00909869 -0.00168023 -0.00695743 -0.00172495 0.0118694 -0.0128735 0.00414359 -0.00193258 0.017005 0.00370015 0.0136577 -0.00970059 -0.00560865 0.00469041 0.00784425 0.00463085 0.00444865 0.0117356 -0.0102091 -0.0142789 -0.00432286 -0.00532335 -0.00798868
internal_weight=0 14108.8 56392.2 43922.6 3887.93 30954.3 12469.5 9830.3 9417.78 22864.6 10220.8 2784.74 21658.1 8089.63 2639.23 4069.44 7272.27 12968.4 21161.7 6151.41 12281.6 3257.73 3962.83 2145.51 811.712 352.347 8804.86 8686.4 2225.88 3803.38 5647.16 4126.8 1675.64 1625.11
internal_count=282116 56485 225631 175724 15557 123838 49907 39347 37696 91472 40928 11142 86645 32366 10560 16291 29108 51886 84659 24637 49138 13043 15856 8588 3248 1410 35228 34754 8911 15218 22605 16510 6703 6503
is_linear=0
shrinkage=0.01


Tree=5
num_leaves=35
num_cat=0
split_feature=10 1 3 1 1 0 10 1 0 8 3 3 5 3 0 0 9 0 0 0 8 1 1 4 3 0 4 0 2 0 4 0 9 3
split_gain=21616.5 11151.5 6472.9 5610.71 4429.94 3375.04 1876.61 1483.49 1260.5 1036.53 924.206 860.573 793.291 687.387 672.599 596.358 388.51 369.852 360.233 343.465 312.638 305.744 279.234 275.816 272.059 269.686 266.665 264.856 231.843 213.762 206.244 191.806 186.341 185.257
threshold=0.45000000000000007 0.95024752475247531 0.61034790365744884 0.97700845665961955 0.44562647754137119 0.054750237777959593 0.90000000000000013 0.74543037554004665 0.022027413182479857 inf 0.63202878992352685 0.95861872146118732 1.0000000180025095e-35 1.0000000180025095e-35 0.033812353157901466 0.061296331273536446 inf 0.08432313812249688 0.65795067160801401 0.19187997162515322 inf 0.8527000964320155 0.97014260249554385 9.5000000000000018 0.89687399291008718 0.01679836875521892 48.500000000000007 0.030396325291962113 5.5000000000000009 0.022864856912730182 12.500000000000002 0.23127448994005759 1.0000000180025095e-35 0.96323330629899984
decision_type=2 2 8 2 2 2 2 2 2 8 8 8 10 10 2 2 8 2 2 2 8 2 2 8 10 2 8 2 2 2 8 2 10 10
left_child=1 4 5 6 13 27 25 14 -6 -7 17 15 18 29 -8 -5 23 -3 -10 -13 -17 30 -12 -9 -18 -4 -27 -2 -15 -1 -14 -11 -16 -21
right_child=2 10 3 11 8 9 7 16 12 31 22 19 21 28 32 20 24 -19 -20 33 -22 -23 -24 -25 -26 26 -28 -29 -30 -31 -32 -33 -34 -35
leaf_value=-0.00081096961127567042 0.0089962911578000803 0.010931241104796098 0.012297494279897646 0.014484580344053371 -0.00031388916028144461 -0.014189175667966127 0.0093880972034084617 -0.0052055940106497259 -0.0049427004274530664 -0.0021053573293016627 0.0046670971886786303 0.018089972917760475 -0.011956255141504914 -0.015602933261165254 0.0028628384577294719 -0.0034774701107167356 -0.00028014553135977994 -0.0043587133669333875 0.0037156886901707582 0.0099332620388113552 0.0082840204269501207 -0.0030232274628195638 0.0151341140185454 0.010247750968833716 -0.0053760047033670046 0.0052378151425076219 0.0098100650351552916 0.0018093459663667277 -0.011723756636806195 -0.009466984614723558 -0.008194848885070825 -0.0065376949494864549 0.013501858164672467 0.017502633578935393
leaf_weight=349.49980711936951 1762.8132260143757 245.02975474298 1865.4655019938946 932.68688277900219 4348.1389999687672 1513.6767710745335 3110.152648255229 149.47161276638508 8620.965603068471 1850.3002721816301 285.44271957874298 4360.512405693531 2457.9396639168262 5801.3918518424034 4140.5292623639107 402.19648166000843 4906.9434022307396 445.96077179908752 508.67847345769405 966.45004130899906 515.44166646897793 768.21929667890072 2411.080913156271 506.17981167137623 1332.1687646359205 2221.1610592603683 3001.8194673210382 723.70312048494816 2103.9060740768909 1559.6617772132158 3594.3828998953104 2069.2719062417746 171.41799263656139 487.37428277730942
leaf_count=1398 7055 981 7468 3737 17393 6061 12447 598 34487 7402 1142 17480 9838 23233 16563 1609 19628 1784 2035 3869 2063 3073 9660 2026 5329 8886 12013 2895 8424 6241 14381 8278 686 1953
internal_value=0 -0.00581893 0.00527004 0.00745349 -0.00775408 -0.00274432 0.00482449 0.00274093 -0.00508693 -0.00716058 0.0113827 0.0147953 -0.00638803 -0.0132701 0.00584343 0.00885354 -0.000598757 0.00106255 -0.00446013 0.0166858 0.00312811 -0.00896836 0.0140267 0.00672301 -0.00136844 0.00903251 0.00786597 0.00690508 -0.0145708 -0.00788302 -0.00972275 -0.0044457 0.00328632 0.0124725
internal_weight=0 33500.3 36989.7 29070 30112.8 7919.77 21405.3 14316.9 20298.3 5433.25 3387.51 7664.66 15950.2 9814.46 7422.1 1850.33 6894.76 690.991 9129.64 5814.34 917.638 6820.54 2696.52 655.651 6239.11 7088.45 5222.98 2486.52 7905.3 1909.16 6052.32 3919.57 4311.95 1453.82
internal_count=282116 134070 148046 116355 120503 31691 85644 57277 81207 21741 13567 30711 63814 39296 29696 7409 27581 2765 36522 23302 3672 27292 10802 2624 24957 28367 20899 9950 31657 7639 24219 15680 17249 5822
is_linear=0
shrinkage=0.01


Tree=6
num_leaves=35
num_cat=0
split_feature=1 3 0 1 0 4 2 3 0 0 9 3 9 6 8 3 6 6 9 1 9 9 3 8 8 0 6 2 8 2 1 8 3 9
split_gain=16341.2 9453.22 5914.45 4591.06 2614.74 1903.05 1185.17 1045.3 785.925 688.46 614.68 607.766 607.07 588.762 531.336 515.513 491.776 383.62 372.993 303.731 298.782 280.961 254.38 250.566 245.335 239.222 295.234 217.862 210.482 203.049 174.414 173.998 169.942 167.189
threshold=0.96449579831932786 0.64174237130211986 0.022864856912730182 0.40224719101123602 0.076639793741492018 11.500000000000002 4.5000000000000009 1.0000000180025095e-35 0.65795067160801401 0.089908413115556196 1.0000000180025095e-35 0.95040983606557383 1.0000000180025095e-35 1.0000000180025095e-35 inf 0.087922705314009683 inf inf 1.0000000180025095e-35 0.9826073805202663 1.0000000180025095e-35 1.0000000180025095e-35 0.98332870241733827 inf 1.0000000180025095e-35 1.0000000180025095e-35 1.0000000180025095e-35 27.500000000000004 inf 10.500000000000002 0.71010186757215632 1.0000000180025095e-35 0.96323330629899984 1.0000000180025095e-35
decision_type=2 8 2 2 2 8 2 10 2 2 10 8 10 10 8 10 8 8 10 2 10 10 10 8 8 2 10 2 8 2 2 8 8 8
left_child=2 4 6 7 -2 13 15 -4 10 19 17 23 16 33 -6 -1 31 -7 25 27 24 28 29 -11 -17 -8 30 -3 -15 -13 -27 -9 -21 -5
right_child=1 9 3 5 14 8 18 12 -10 11 -12 22 -14 21 -16 20 -18 -19 -20 32 -22 -23 -24 -25 -26 26 -28 -29 -30 -31 -32 -33 -34 -35
leaf_value=0.0043391236513188941 0.0094927301285867155 0.014319890967657036 -0.0040004641194281701 -0.011136115434473522 -0.014627943788822713 -0.0033727226373778691 0.011146938931395048 -0.017427809185034782 0.0067788917743644107 -0.0027573774077907405 0.0090830557854603908 0.0076097889658004172 0.0042099382741236889 -0.014994502358457886 -0.0055682371353839126 -0.01534595545639313 -0.0077885816750543346 -0.00068852372959130623 0.011603186140229484 0.013965092452872616 0.0077300900438727399 0.0031276011856624366 0.017481600818251217 0.0082502125170632011 -0.0053670217369426888 0.006549021195563054 0.0015869823786247791 -0.0015396435097708616 -0.0088270057224013668 0.013819276030506911 0.0033255837873219312 -0.01312018717966639 0.018101634148970817 -0.0034695065909817499
leaf_weight=662.69106207787991 1037.5572815239429 206.52128058671951 1999.2370442450047 306.5411002188921 1077.410141825676 8854.27000695467 444.24112069606781 1190.9751599133015 1206.4002167135477 338.92833787202835 535.43851657211781 847.70711034536362 220.32690405845642 667.02912867069244 1623.5135225355625 300.57961782813072 1628.3387731462717 13358.728495031595 675.18837623298168 1273.9214857667685 146.35505245625973 173.41677662730217 1030.3530860990286 529.74398812651634 1369.9858275353909 3411.8826815485954 4219.7016609013081 148.9223471134901 3271.133773162961 1396.4509367644787 3308.6176422387362 4465.4948899894953 4583.3603132814169 3961.5311700850725
leaf_count=2652 4154 827 8001 1227 4316 35428 1778 4773 4827 1356 2143 3396 882 2671 6495 1204 6519 53445 2703 5107 586 694 4132 2121 5486 13655 16887 596 13092 5596 13238 17889 18389 15851
internal_value=0 0.00963082 -0.00240767 -0.00431701 -0.00399944 -0.002521 0.00308669 -0.010427 -0.00108609 0.0145514 -0.00150326 0.0113928 -0.0121387 -0.00662281 -0.00918297 -0.00320943 -0.0126333 -0.00175852 0.00438135 0.0166575 -0.00596327 -0.00932363 0.0133655 0.00395443 -0.00716391 0.00395285 0.00366053 0.00767375 -0.00987224 0.0114746 0.00496229 -0.0140276 0.0172024 -0.00402062
internal_weight=0 14094.4 56378.1 41838.9 3738.48 32334.5 14539.2 9504.37 23954.8 10355.9 22748.4 4143.18 7505.14 8379.65 2700.92 2479.61 7284.81 22213 12059.6 6212.73 1816.92 4111.58 3274.51 868.672 1670.57 11384.4 10940.2 355.444 3938.16 2244.16 6720.5 5656.47 5857.28 4268.07
internal_count=282116 56485 225631 167442 14965 129378 58189 38064 95843 41520 91016 16601 30063 33535 10811 9928 29181 88873 48261 24919 7276 16457 13124 3477 6690 45558 43780 1423 15763 8992 26893 22662 23496 17078
is_linear=0
shrinkage=0.01


Tree=7
num_leaves=35
num_cat=0
split_feature=10 1 3 1 1 0 10 1 0 8 3 3 5 3 0 0 9 0 0 0 8 1 1 4 4 0 4 6 0 6 0 4 0 9
split_gain=21042.9 10777.4 6241.89 5353.7 4269.17 3264.3 1840.91 1458.5 1209.47 1015.01 886.883 831.529 768.968 660.399 648.706 576.141 378.964 355.569 347.63 333.952 301.768 299.301 268.362 267.664 267.245 257.902 258.496 254.342 226.624 212.304 206.586 197.616 197.548 179.56
threshold=0.45000000000000007 0.95024752475247531 0.61034790365744884 0.97700845665961955 0.44562647754137119 0.052219794564660617 0.90000000000000013 0.74543037554004665 0.022027413182479857 inf 0.63202878992352685 0.95861872146118732 1.0000000180025095e-35 1.0000000180025095e-35 0.033812353157901466 0.061296331273536446 inf 0.08432313812249688 0.65795067160801401 0.19187997162515322 inf 0.8527000964320155 0.97700845665961955 78.500000000000014 9.5000000000000018 0.01679836875521892 48.500000000000007 inf 0.027831704497035419 1.0000000180025095e-35 0.033226780471309045 12.500000000000002 0.23127448994005759 1.0000000180025095e-35
decision_type=2 2 8 2 2 2 2 2 2 8 8 8 10 10 2 2 8 2 2 2 8 2 2 10 8 2 8 8 2 10 2 8 2 10
left_child=1 4 5 6 13 28 25 14 29 -7 17 15 18 30 -8 -5 24 -3 -10 -13 -17 31 -12 -18 -9 -4 -27 -15 -2 -6 -1 -14 -11 -16
right_child=2 10 3 11 8 9 7 16 12 32 22 19 21 27 33 20 23 -19 -20 -21 -22 -23 -24 -25 -26 26 -28 -29 -30 -31 -32 -33 -34 -35
leaf_value=-0.0022170094765660529 0.0090829960358517568 0.010748199008710003 0.012141159767017667 0.014221767779564534 0.0013037928226395912 -0.013879466753217129 0.0092736118030021485 -0.0051062912804719319 -0.0048774078292817234 -0.001948912677025979 0.0055568134040485054 0.01777123770096874 -0.011776138928846259 -0.015255001931351877 0.0028649587121986129 -0.0034345882365521556 -0.0015637035384059579 -0.0042472102634394165 0.0036287092008539489 0.012228502083246461 0.008122100185207955 -0.0029601660660342984 0.014985230876858099 0.019347502958993009 0.010107134089919052 0.0052189075004725229 0.0097209182204078658 -0.010818542050345901 0.0025032990563495804 -0.0033010251919106497 -0.0097281458942114415 -0.0080934220547048685 -0.0064130615225005891 0.013311384029748749
leaf_weight=494.73041884601116 1655.4904672950506 244.86465041339397 1864.4520008563995 931.42596077919006 2785.0385602116585 1521.3084343969822 3109.1632777750492 149.43689422309399 8620.3022373020649 1904.8486804813147 347.05837687849998 4351.9521010518074 2456.54258492589 6265.4400352239609 4140.4604548662901 402.16250377893448 6177.2415301054716 445.90120586752892 508.60973101854324 1452.2596876472235 515.19396910071373 768.17333480715752 2345.9751124978065 61.718026205897331 505.95141205191612 2221.0197123736143 3001.1361303329468 1631.89143691957 766.35345143079758 1562.9883823394775 1413.9702257812023 3593.6907839626074 2068.9251454919577 171.32648921012878
leaf_count=1979 6628 981 7468 3737 11141 6098 12447 598 34487 7621 1389 17480 9838 25121 16563 1609 24710 1784 2035 5822 2063 3073 9413 247 2026 8886 12013 6536 3066 6252 5660 14381 8278 686
internal_value=0 -0.00574245 0.00520096 0.00734578 -0.0076446 -0.00267036 0.00477879 0.00271513 -0.00502674 -0.00693329 0.011178 0.0145242 -0.00630142 -0.0130625 0.00579171 0.00868179 -0.000596329 0.00106774 -0.00440335 0.0163848 0.00305482 -0.00884241 0.0137708 -0.00135638 0.0066365 0.00894723 0.00780651 -0.0143385 0.00700156 -0.000351312 -0.00778202 -0.00958903 -0.0042735 0.00328057
internal_weight=0 33485.2 36971.8 29054.9 30101.4 7916.93 21401.9 14315.3 20295.3 5495.08 3383.8 7652.99 15947.3 9806.03 7420.95 1848.78 6894.35 690.766 9128.91 5804.21 917.356 6818.41 2693.03 6238.96 655.388 7086.61 5222.16 7897.33 2421.84 4348.03 1908.7 6050.23 3973.77 4311.79
internal_count=282116 134070 148046 116355 120503 31691 85644 57277 81207 21997 13567 30711 63814 39296 29696 7409 27581 2765 36522 23302 3672 27292 10802 24957 2624 28367 20899 31657 9694 17393 7639 24219 15899 17249
is_linear=0
shrinkage=0.01


Tree=8
num_leaves=35
num_cat=0
split_feature=10 1 3 1 1 0 10 1 0 8 3 3 6 3 0 0 9 0 0 0 8 1 3 1 4 0 4 0 6 6 0 6 4 3
split_gain=20631 10567.1 6120.09 5257.2 4190.13 3200.29 1805.15 1429.73 1185.73 984.794 870.418 817.246 670.748 648.759 636.214 565.549 371.505 349.064 333.303 328.76 295.844 292.493 266.551 264.076 262.029 253.283 260.166 250.431 250.017 208.08 202.768 191.626 187.055 179.807
threshold=0.45000000000000007 0.95024752475247531 0.61034790365744884 0.97700845665961955 0.44562647754137119 0.054750237777959593 0.90000000000000013 0.74543037554004665 0.022027413182479857 inf 0.63202878992352685 0.95861872146118732 inf 1.0000000180025095e-35 0.033812353157901466 0.061296331273536446 inf 0.13032030469210309 0.65795067160801401 0.19187997162515322 inf 0.83424908424908439 0.89687399291008718 0.97014260249554385 9.5000000000000018 0.017492654247075638 48.500000000000007 0.030396325291962113 inf 1.0000000180025095e-35 0.022864856912730182 inf 12.500000000000002 0.96323330629899984
decision_type=2 2 8 2 2 2 2 2 2 8 8 8 8 10 2 2 8 2 2 2 8 2 10 2 8 2 8 2 8 10 2 8 8 10
left_child=1 4 5 6 13 27 25 14 29 -7 17 15 21 30 -8 -5 24 -3 -14 -13 -17 32 -18 -12 -9 -4 -27 -2 -15 -6 -1 -11 -10 -21
right_child=2 10 3 11 8 9 7 16 12 31 23 19 18 28 -16 20 22 -19 -20 33 -22 -23 -24 -25 -26 26 -28 -29 -30 -31 -32 -33 -34 -35
leaf_value=-0.00081831924240348256 0.0087884817365450705 0.00906293682016668 0.011956670986094016 0.014091331669561764 0.00129077030281405 -0.013804680258065494 0.0091834965495963313 -0.0050556893589835915 -0.011327577986957032 -0.005983985972994728 0.0045416934047132831 0.017615090300860135 -0.0048153030673953583 -0.015114496789683723 0.0032478975534030747 -0.003400307938513778 -0.00026563035315327067 -0.0052536622526643843 0.0037843205260055467 0.0096114538516036928 0.0080431192683801493 -0.0033529121440824239 -0.0053098564317012199 0.014723059823514174 0.010009592119413244 0.005088552794126607 0.0096334523587408207 0.0017990981830718587 -0.010714823047922865 -0.0032680225795552963 -0.0092493339457581127 -0.0013941361744566408 -0.0078336395820328506 0.017076410013420147
leaf_weight=349.49924875795841 1761.697168648243 304.48831777274609 1925.2141803950071 930.6519488543272 2785.0065883249044 1511.0365426838398 3108.2812967300415 149.42433235049248 2554.314714640379 2481.7417266666889 285.37882560491562 4346.6512290239334 8093.2624476104975 6260.4725250899792 4311.6236456036568 402.15575574338436 4906.8825829774141 386.13950124382973 477.06775791943073 965.24888390302658 515.05216903984547 977.22486481070518 1332.0279832780361 2405.536654099822 505.77486099302769 2190.4028127342463 2969.100845515728 723.65194909274578 1631.2155064195395 1562.9859131574631 1558.7948262393475 1437.0138835906982 3843.0791112333536 486.14034423232079
leaf_count=1398 7055 1220 7715 3737 11141 6061 12447 598 10232 9931 1142 17480 32382 25121 17249 1609 19628 1545 1909 3869 2063 3910 5329 9660 2026 8764 11888 2895 6536 6252 6241 5749 15381 1953
internal_value=0 -0.00568686 0.00515065 0.00727493 -0.0075703 -0.00264426 0.00473171 0.00268823 -0.00497707 -0.00694629 0.0110737 0.0143924 -0.00623934 -0.0129399 0.00573461 0.00859931 -0.000590379 0.00105728 -0.00433645 0.0162383 0.00302476 -0.00845053 -0.00134282 0.0136439 0.00657204 0.00886014 0.0077043 0.00675396 -0.0142054 -0.0003478 -0.00770586 -0.00430121 -0.00922899 0.0121135
internal_weight=0 33474.5 36959.8 29044.6 30092.9 7915.14 21398.7 14314 20292.9 5429.79 3381.54 7645.9 15944.9 9799.98 7419.9 1847.86 6894.11 690.628 8570.33 5798.04 917.208 7374.62 6238.91 2690.92 655.199 7084.72 5159.5 2485.35 7891.69 4347.99 1908.29 3918.76 6397.39 1451.39
internal_count=282116 134070 148046 116355 120503 31691 85644 57277 81207 21741 13567 30711 63814 39296 29696 7409 27581 2765 34291 23302 3672 29523 24957 10802 2624 28367 20652 9950 31657 17393 7639 15680 25613 5822
is_linear=0
shrinkage=0.01


Tree=9
num_leaves=35
num_cat=0
split_feature=10 1 3 1 1 0 10 1 0 8 3 3 5 3 0 0 9 0 0 0 1 8 4 1 4 0 4 2 0 9 0 0 4 5
split_gain=20227.9 10361.5 6000.96 5163.65 4113.36 3137.54 1770.22 1401.56 1162.49 977.957 854.42 803.509 746.19 637.517 624.514 555.383 364.204 342.95 335.093 323.758 289.615 276.43 263.373 259.643 256.928 249.116 235.691 224.917 218.335 203.689 199.513 193.422 191.514 178.478
threshold=0.45000000000000007 0.95024752475247531 0.61034790365744884 0.97700845665961955 0.44562647754137119 0.052219794564660617 0.90000000000000013 0.74543037554004665 0.022027413182479857 inf 0.63202878992352685 0.95861872146118732 1.0000000180025095e-35 1.0000000180025095e-35 0.026881930268567507 0.068541389144212844 inf 0.08432313812249688 0.65795067160801401 0.19187997162515322 0.8527000964320155 inf 78.500000000000014 0.97700845665961955 9.5000000000000018 0.020806662345169879 48.500000000000007 5.5000000000000009 0.027831704497035419 1.0000000180025095e-35 0.033226780471309045 0.23127448994005759 12.500000000000002 1.0000000180025095e-35
decision_type=2 2 8 2 2 2 2 2 2 8 8 8 10 10 2 2 8 2 2 2 2 8 10 2 8 2 8 2 2 10 2 2 8 10
left_child=1 4 5 6 13 28 25 14 33 -7 17 15 18 30 -8 -5 24 -3 -10 -13 32 -17 -18 -12 -9 -4 -27 -15 -2 -16 -1 -11 -14 -6
right_child=2 10 3 11 8 9 7 16 12 31 23 19 20 27 29 21 22 -19 -20 -21 -22 -23 -24 -25 -26 26 -28 -29 -30 -31 -32 -33 -34 -35
leaf_value=-0.0021620139472340004 0.0089097186200544805 0.01055942642402766 0.011534911354968891 0.013730749217011326 0.0014861701903573974 -0.013623340379517917 0.0095260809526455589 -0.0050056489156094274 -0.0047737486523404078 -0.0018890143584433009 0.0054394623974430194 0.017462847382443462 -0.011570941617216987 -0.015092898377495341 0.0030566146933302747 -0.0035716405777674867 -0.0015350320492988135 -0.0041719343810204378 0.0035780466027016699 0.012000906896223615 -0.0028955444681318882 0.0077356012677480589 0.019211750172748537 0.014715854520226498 0.0099134584448183644 0.0049052260113116907 0.009375963912579258 -0.011267825388750062 0.0024506954257317681 0.013438686775667723 -0.0095441767450915559 -0.0063066153938418123 -0.0079442956450244545 -0.002586579371772551
leaf_weight=494.7088784724474 1654.4917162954807 244.65180534124374 2237.7029765546322 970.18166004121304 2393.5393296182156 1519.1242426484823 2689.1551689654589 149.40998107194901 8618.8850131332874 1904.6698690950871 346.95219255983829 4340.7306178808212 2454.4155703634024 5785.8682648539543 4532.4297882169485 386.67329758405685 6177.1502489447594 445.84459294378757 508.55209892988205 1450.3675419837236 768.11931537091732 489.98013676702976 61.694780081510544 2341.6023895144463 505.57466441392899 2034.6475416272879 2810.1890652775764 2099.4235672354698 766.30931539833546 197.17730955779552 1413.120111644268 2068.5026764273643 3592.3472039699554 1954.4083057641983
leaf_count=1979 6628 981 8971 3899 9575 6098 10773 598 34487 7621 1389 17480 9838 23233 18133 1547 24710 1784 2035 5822 3073 1963 247 9413 2026 8141 11255 8424 3066 790 5660 8278 14381 7818
internal_value=0 -0.00563203 0.00510105 0.00720508 -0.007497 -0.0026185 0.00468519 0.00266162 -0.00492795 -0.00679902 0.0109711 0.0142634 -0.00617797 -0.0128196 0.00567815 0.00851808 -0.0005845 0.0010469 -0.00430827 0.0160953 -0.00868189 0.00274724 -0.00132941 0.0135194 0.00650846 0.00877426 0.00749877 -0.0140748 0.0068657 0.00348993 -0.00763069 -0.00418925 -0.0094167 -0.000344324
internal_weight=0 33462.4 36946.2 29033.1 30083.4 7913.1 21395.1 14312.6 20290.3 5492.3 3379.05 7637.93 15942.3 9793.12 7418.76 1846.84 6893.83 690.496 9127.44 5791.1 6814.88 876.653 6238.85 2688.55 654.985 7082.54 4844.84 7885.29 2420.8 4729.61 1907.83 3973.17 6046.76 4347.95
internal_count=282116 134070 148046 116355 120503 31691 85644 57277 81207 21997 13567 30711 63814 39296 29696 7409 27581 2765 36522 23302 27292 3510 24957 10802 2624 28367 19396 31657 9694 18923 7639 15899 24219 17393
is_linear=0
shrinkage=0.01


Tree=10
num_leaves=35
num_cat=0
split_feature=10 1 4 1 1 0 10 0 8 1 0 5 4 4 0 9 2 0 4 0 1 1 0 6 4 6 8 9 6 0 4 9 2 0
split_gain=19833.5 10161.3 5145.6 4076.99 3996.25 3450.42 1468.89 1149.35 1130.03 1121.15 906.823 734.576 637.261 620.853 503.785 486.939 455.865 362.368 336.827 329.476 298.784 297.043 250.522 247.393 240.876 235.999 226.974 212.959 198.422 190.323 188.092 169.497 168.57 167.278
threshold=0.45000000000000007 0.95475020475020489 10.500000000000002 0.44562647754137119 0.97700845665961955 0.044268072076603361 0.90000000000000013 0.022027413182479857 inf 0.7373530914665305 0.089908413115556196 1.0000000180025095e-35 9.5000000000000018 1.0000000180025095e-35 0.026881930268567507 inf 11.500000000000002 0.081617649232190573 50.500000000000007 0.65795067160801401 0.95861872146118732 0.8527000964320155 0.022027413182479857 inf 48.500000000000007 inf inf 1.0000000180025095e-35 1.0000000180025095e-35 0.020806662345169879 12.500000000000002 1.0000000180025095e-35 4.5000000000000009 0.022864856912730182
decision_type=2 2 8 2 2 2 2 2 8 2 2 10 8 10 2 8 2 2 10 2 2 2 2 8 8 8 8 10 10 2 8 10 2 2
left_child=1 3 5 13 6 20 22 28 -7 14 -6 19 17 29 -8 -11 26 -3 -17 -9 33 30 -4 -15 32 27 -12 -10 -5 -1 -13 -16 -24 -2
right_child=2 12 4 7 10 8 9 11 25 15 16 21 -14 23 31 18 -18 -19 -20 -21 -22 -23 24 -25 -26 -27 -28 -29 -30 -31 -32 -33 -34 -35
leaf_value=-0.00058247001153375016 0.0075090662388604202 0.011906050425405702 0.011465815612248719 0.0012926301185569589 0.016382889879137 -0.01266331519023178 0.0095002691787998937 -0.0046991909526895425 -0.0051769763962432524 0.0093557596353558668 -0.0015787834057471252 -0.011461628196078941 0.013329665809807201 -0.014852790707937245 0.0034105945715710447 -0.0010462114034222396 0.012735815861851778 -0.0034867926583900463 0.017157121210000192 0.0035624347717759966 0.012602783851441214 -0.0028317303203316681 -0.0025285071898480337 -0.010469439067636463 0.0092478663660953402 6.535654789761507e-05 0.0075285266974294785 0.0095064431352021913 -0.0031451694679298587 -0.0090151624697714181 -0.0078667474663248575 0.013779582500045177 0.0058617003729401068 0.0018271122715563721
leaf_weight=321.74059572815895 1460.4185012429953 244.57757212221622 2205.359421774745 2798.9501372724771 4427.4199717640877 1661.4505429118872 2428.7792723923922 8656.0983844697475 2941.2259477227926 518.83756868541241 387.66256392002106 2453.0535934567451 2628.8103225827217 6237.7206995040178 4148.2114829570055 5972.0611042231321 1652.3487690836191 407.66995930671692 103.30503609776497 511.01616072654724 800.28177028894424 797.835453748703 281.66096819937229 1626.3052604496479 2759.0467237830162 1593.8716605603695 928.75947365164757 102.07045856118202 1573.961186081171 1599.758440926671 3591.4871778339148 163.86697228252888 1590.5179125517607 803.95569743216038
leaf_count=1287 5851 982 8846 11197 17845 6671 9734 34639 11773 2080 1555 9838 10572 25076 16597 23890 6641 1632 414 2045 3214 3192 1127 6524 11054 6378 3728 409 6296 6409 14381 657 6365 3217
internal_value=0 -0.00557797 0.00505212 -0.00739567 0.0072275 -0.00135263 0.00492191 -0.00484836 -0.00558708 0.00298959 0.0135152 -0.00608942 0.0111344 -0.0127013 0.00585742 5.77839e-05 0.00923787 0.00228457 -0.000736242 -0.00423851 0.00734978 -0.00856894 0.00869075 -0.0139466 0.00736884 -0.00305131 0.00484591 -0.00468388 -0.000304493 -0.0076038 -0.00932599 0.00380518 0.00459883 0.00549233
internal_weight=0 33449 36931.1 30167.9 27567.8 9363.27 20171.6 20382.4 6298.62 13335.1 7396.19 16009.5 3281.06 9785.52 6740.86 6594.2 2968.77 652.248 6075.37 9167.11 3064.66 6842.38 6836.59 7864.03 4631.23 4637.17 1316.42 3043.3 4372.91 1921.5 6044.54 4312.08 1872.18 2264.37
internal_count=282116 134070 148046 120884 110533 37513 80764 81588 25231 53372 29769 64095 13186 39296 26988 26384 11924 2614 24304 36684 12282 27411 27392 31600 18546 18560 5283 12182 17493 7696 24219 17254 7492 9068
is_linear=0
shrinkage=0.01


Tree=11
num_leaves=35
num_cat=0
split_feature=1 3 0 1 0 4 2 3 0 0 9 9 6 8 3 3 6 6 9 9 1 9 3 8 0 6 2 2 2 8 8 2 1 9
split_gain=14847.5 8664.82 5420.9 4210.37 2540.15 1751.62 1090.65 966.783 745.978 585.1 582.135 573.339 562.32 528.671 469.946 462.284 460.571 362.354 356.978 282.212 276.726 269.137 246.685 231.736 226.481 277.011 211.446 200.978 200.935 200.688 166.627 163.851 163.478 160.648
threshold=0.96449579831932786 0.66797900262467202 0.022864856912730182 0.40224719101123602 0.076639793741492018 11.500000000000002 4.5000000000000009 1.0000000180025095e-35 0.65795067160801401 0.089908413115556196 1.0000000180025095e-35 1.0000000180025095e-35 1.0000000180025095e-35 inf 0.087922705314009683 0.95861872146118732 inf inf 1.0000000180025095e-35 1.0000000180025095e-35 0.9826073805202663 1.0000000180025095e-35 0.98332870241733827 1.0000000180025095e-35 1.0000000180025095e-35 1.0000000180025095e-35 27.500000000000004 9.5000000000000018 11.500000000000002 inf 1.0000000180025095e-35 9.5000000000000018 0.71010186757215632 1.0000000180025095e-35
decision_type=2 8 2 2 2 8 2 10 2 2 10 10 10 8 10 8 8 8 10 10 2 10 10 8 2 10 2 2 2 8 8 2 2 8
left_child=2 4 6 7 -2 12 14 -4 10 20 17 16 33 -6 -1 27 30 -7 24 23 26 29 28 -16 -8 32 -3 -11 -17 -14 -9 -15 -26 -5
right_child=1 9 3 5 13 8 18 11 -10 15 -12 -13 21 31 19 22 -18 -19 -20 -21 -22 -23 -24 -25 25 -27 -28 -29 -30 -31 -32 -33 -34 -35
leaf_value=0.0041315964084900824 0.009346183243544047 0.013973347776936762 -0.0038011221072273699 -0.010778627051087033 -0.013974439167714871 -0.0032513139108117707 0.010797364168364462 -0.016803847908780607 0.006637780083279976 -0.0022065068392999126 0.0088754462006481981 0.0042673221634199864 -0.014529659328857336 -0.0088258883379027341 -0.014847414061246112 0.0075067029437937442 -0.0074238470626177243 -0.00064182537525832339 0.011282720089272169 0.0076099102030144049 0.016537923200728104 0.003208871409391305 0.016855782638668299 -0.0051326803801597558 0.006306388056845985 0.0014981308484895064 -0.0017370779410797173 0.0081309786584256548 0.013580377597688905 -0.0085001832500623872 -0.012579418803693799 -0.0024601504151376382 0.0031843325672048718 -0.0032577059351543065
leaf_weight=662.0785618275404 1100.513833001256 204.29392777383327 1996.9995556622744 306.04589286446571 1104.4104254692793 8848.1896634548903 443.57314781844616 1185.5999461114407 1205.6979878097773 296.28407792747021 534.75502079725266 219.94563838839531 665.30323469638824 683.76472744345665 299.50538961589336 971.41821241378784 1625.2920987606049 13353.375893905759 674.01895749568939 146.05607327818871 5755.4113781601191 173.24127849936485 1025.2966819703579 1366.7731442600489 3407.986414372921 4215.7610293775797 147.27366645634174 514.04626354575157 1244.4600156098604 3266.6772118806839 4449.6896043717861 991.02466993033886 3306.8727852106094 3958.7220341861248
leaf_count=2652 4415 820 8001 1227 4439 35428 1778 4773 4827 1187 2143 882 2671 2737 1204 3904 6519 53445 2703 586 23227 694 4132 5486 13655 16887 590 2061 5007 13092 17889 3966 13238 15851
internal_value=0 0.0092011 -0.00229371 -0.00412276 -0.00351136 -0.00240364 0.00296938 -0.00998361 -0.00102695 0.0140563 -0.00143347 -0.0116339 -0.00634146 -0.00860323 -0.00307737 0.0111084 -0.0121158 -0.00168186 0.00421134 -0.00571157 0.0160116 -0.00898348 0.0127975 -0.00688024 0.00379212 0.00350765 0.00739069 0.00435021 0.0109187 -0.00952099 -0.0134686 -0.00506005 0.00476909 -0.00379789
internal_weight=0 14038.2 56312.2 41789.5 3879.71 32312 14522.6 9477.53 23942 10158.5 22736.3 7480.53 8369.99 2779.2 2474.41 4051.51 7260.58 22201.6 12048.2 1812.33 6106.98 4105.22 3241.17 1666.28 11374.2 10930.6 351.568 810.33 2215.88 3931.98 5635.29 1674.79 6714.86 4264.77
internal_count=282116 56485 225631 167442 15557 129378 58189 38064 95843 40928 91016 30063 33535 11142 9928 16291 29181 88873 48261 7276 24637 16457 13043 6690 45558 43780 1410 3248 8911 15763 22662 6703 26893 17078
is_linear=0
shrinkage=0.01


Tree=12
num_leaves=35
num_cat=0
split_feature=1 3 0 1 0 4 2 3 0 0 9 9 6 8 3 3 6 6 9 9 1 9 3 8 0 6 2 2 8 2 8 2 1 3
split_gain=14565 8505.6 5314.13 4131.21 2490.75 1717.43 1069.08 949.468 731.205 576.345 570.654 562.6 551.656 519.366 460.709 454.27 452.749 355.17 350.188 276.67 272.496 263.944 242.814 227.532 222.147 271.575 207.454 197.657 197.16 197.058 164.051 160.657 160.308 157.98
threshold=0.96449579831932786 0.66797900262467202 0.022864856912730182 0.40224719101123602 0.076639793741492018 11.500000000000002 4.5000000000000009 1.0000000180025095e-35 0.65795067160801401 0.089908413115556196 1.0000000180025095e-35 1.0000000180025095e-35 1.0000000180025095e-35 inf 0.087922705314009683 0.95861872146118732 inf inf 1.0000000180025095e-35 1.0000000180025095e-35 0.9826073805202663 1.0000000180025095e-35 0.98332870241733827 1.0000000180025095e-35 1.0000000180025095e-35 1.0000000180025095e-35 27.500000000000004 10.500000000000002 inf 9.5000000000000018 1.0000000180025095e-35 9.5000000000000018 0.71010186757215632 0.16271373414230558
decision_type=2 8 2 2 2 8 2 10 2 2 10 10 10 8 10 8 8 8 10 10 2 10 10 8 2 10 2 2 8 2 8 2 2 10
left_child=2 4 6 7 -2 12 14 -4 10 20 17 16 -5 -6 -1 29 30 -7 24 23 26 28 27 -16 -8 32 -3 -17 -14 -11 -9 -15 -26 -27
right_child=1 9 3 5 13 8 18 11 -10 15 -12 -13 21 31 19 22 -18 -19 -20 -21 -22 -23 -24 -25 25 33 -28 -29 -30 -31 -32 -33 -34 -35
leaf_value=0.0040907430988379474 0.0092569349780118517 0.013843952499920535 -0.0037634253131926336 -0.0037603110166868656 -0.013848417567950884 -0.0032189342550220179 0.010694008029367668 -0.016658414850162916 0.0065722612348580256 -0.0021843626715689003 0.0087888310076302302 0.0042246061062290114 -0.014396393267612079 -0.008739502129278761 -0.014711824715647597 0.0069863005262410949 -0.0073520124932563869 -0.00063540832758718097 0.011175303723744144 0.0075348913259454591 0.016399099254482276 0.0031767291929598856 0.01671258505122648 -0.0050820509407305285 0.0062445065503164742 0.0038987215614155013 -0.0017196524681456591 0.013151380908539375 -0.0084179045731642352 0.0080522620000822616 -0.01246414078794586 -0.0024356401590453687 0.0031526744643615564 -6.7794240941074839e-05
leaf_weight=662.00504447519779 1100.0163270533085 204.14305025339127 1996.8344976305962 4264.3269019275904 1103.3223217278719 8847.8255202770233 443.38352654874325 1183.9999091625214 1205.5421714186668 296.29579897224903 534.62647710740566 219.94886906445026 664.75092449784279 683.61990836262703 299.24528627097607 838.15407358109951 1624.7643324434757 13353.346928417683 673.6951919645071 146.03622891008854 5746.1384598165751 173.24518600106239 1023.7494243383408 1366.5875316560268 3407.3452273309231 1648.5930773615837 147.2793500572443 1375.9061918854713 3265.626703158021 513.88251289725304 4445.9547025859356 990.98867639899254 3306.6804230064154 2567.0805757790804
leaf_count=2652 4415 820 8001 17078 4439 35428 1778 4773 4827 1187 2143 882 2671 2737 1204 3370 6519 53445 2703 586 23227 694 4132 5486 13655 6602 590 5541 13092 2061 17889 3966 13238 10285
internal_value=0 0.00911871 -0.00227122 -0.0040824 -0.00347785 -0.00237981 0.00294009 -0.00989011 -0.0010167 0.0139336 -0.00141917 -0.0115266 -0.00627959 -0.00852113 -0.00304727 0.011007 -0.0120044 -0.00166507 0.00416973 -0.00565593 0.0158761 -0.00889713 0.0126828 -0.00681329 0.00375457 0.00347287 0.00731985 0.0108184 -0.00942965 0.00430751 -0.0133467 -0.00501001 0.00472199 0.00148318
internal_weight=0 14023.5 56301.4 41780.8 3877.95 32309.3 14520.7 9471.5 23941.3 10145.5 22735.8 7474.67 8367.95 2777.93 2473.87 4047.99 7254.72 22201.2 12046.8 1811.87 6097.56 4103.62 3237.81 1665.83 11373.1 10929.7 351.422 2214.06 3930.38 810.178 5629.95 1674.61 6714.03 4215.67
internal_count=282116 56485 225631 167442 15557 129378 58189 38064 95843 40928 91016 30063 33535 11142 9928 16291 29181 88873 48261 7276 24637 16457 13043 6690 45558 43780 1410 8911 15763 3248 22662 6703 26893 16887
is_linear=0
shrinkage=0.01


Tree=13
num_leaves=35
num_cat=0
split_feature=10 1 3 1 1 0 10 1 0 8 3 3 5 3 0 0 9 0 0 0 8 1 3 1 6 0 6 0 8 6 0 2 3 10
split_gain=19181.9 9689.38 5612.39 4732.84 3830.99 2948 1707.21 1359.28 1070.23 911.17 794.619 769.841 701.992 591.077 582.745 517.684 347.645 321.352 311.914 309.865 281.875 277.895 261.154 244.705 233.149 228.7 233.001 228.687 209.344 193.055 187.475 183.739 173.912 169.619
threshold=0.45000000000000007 0.95024752475247531 0.61034790365744884 0.97700845665961955 0.44562647754137119 0.054750237777959593 0.90000000000000013 0.74543037554004665 0.022027413182479857 inf 0.63202878992352685 0.95861872146118732 1.0000000180025095e-35 1.0000000180025095e-35 0.033812353157901466 0.055631090137318435 inf 0.13032030469210309 0.65795067160801401 0.19187997162515322 inf 0.8527000964320155 0.89687399291008718 0.97700845665961955 inf 0.01679836875521892 inf 0.030396325291962113 1.0000000180025095e-35 1.0000000180025095e-35 0.033226780471309045 8.5000000000000018 0.96323330629899984 0.7333333333333335
decision_type=2 2 8 2 2 2 2 2 2 8 8 8 10 10 2 2 8 2 2 2 8 2 10 2 8 2 8 2 10 10 2 2 10 2
left_child=1 4 5 6 13 27 25 14 29 -7 17 15 18 30 -8 -5 28 -3 -10 -13 -17 -14 -18 -12 -15 -4 -27 -2 -9 -6 -1 -11 -21 -33
right_child=2 10 3 11 8 9 7 16 12 31 23 19 21 24 -16 20 22 -19 -20 32 -22 -23 -24 -25 -26 26 -28 -29 -30 -31 -32 33 -34 -35
leaf_value=-0.002139893504504946 0.008473233939247482 0.0087175317443398941 0.011629528294210514 0.013621993587992152 0.0011628293434795785 -0.013245861462128767 0.0088874094632543053 0.0097885281597660505 -0.0046494571462311392 -0.0069099811796997012 0.0052172446313616637 0.016929871871757953 -0.0091646106975365495 -0.014530930054758003 0.0032042006438855221 -0.0031383406353528705 -0.00024628370679252482 -0.0050293871351337061 0.0034100238499868625 0.0091132204755234418 0.0078415835026301624 -0.0027756508531654196 -0.005239789116036511 0.01422962261801739 -0.010275854902613766 0.0055308141937908655 0.0097644485302455994 0.0017918227471192933 -0.0029517927640995037 -0.0032284544987612835 -0.0092973608329416542 0.0013901458737744766 0.016472781830876387 -0.0042294696832441596
leaf_weight=494.64700359106064 1758.9842309653759 303.80357345938683 1859.2520281672478 892.60155966877937 2784.530644968152 1504.5297992229462 3104.0451623797417 477.63220521807671 8616.4589919745922 1453.0787840783596 346.60386651754379 4313.4866554886103 6039.4254552274942 6230.3427755832672 4310.8400313705206 417.30767805874348 4906.6350196897984 385.91732311248779 508.32435496151447 962.22172412276268 531.23215669393539 767.94113099575043 1331.6313573122025 2330.5794752240181 1627.1296367198229 2738.2063808888197 2478.962198510766 723.42839084565639 176.46783873438835 1562.9299553781748 1411.5581809431314 790.73833875358105 483.29340071976185 1672.6600042581558
leaf_count=1979 7055 1220 7468 3606 11141 6061 12447 1916 34487 5820 1389 17480 24219 25121 17249 1671 19628 1545 2035 3869 2132 3073 5329 9413 6536 10965 9934 2895 708 6252 5660 3165 1953 6695
internal_value=0 -0.00548869 0.00497144 0.00700833 -0.00729153 -0.00249819 0.00459913 0.00261185 -0.00481365 -0.00663113 0.0105977 0.0137865 -0.00601367 -0.012438 0.00558355 0.00815585 -0.000585035 0.0010247 -0.00420034 0.0155863 0.00301012 -0.00844407 -0.00131243 0.0130634 -0.0136501 0.00861682 0.00754279 0.00652668 0.0063499 -0.000415663 -0.00744078 -0.00408953 0.0115755 -0.00242521
internal_weight=0 33410.2 36887.2 28983.8 30043.3 7903.42 21383.7 14307.3 20279.6 5421.01 3366.9 7600.14 15932.1 9763.68 7414.89 1841.14 6892.37 689.721 9124.78 5759 948.54 6807.37 6238.27 2677.18 7857.47 7076.42 5217.17 2482.41 654.1 4347.46 1906.21 3916.48 1445.52 2463.4
internal_count=282116 134070 148046 116355 120503 31691 85644 57277 81207 21741 13567 30711 63814 39296 29696 7409 27581 2765 36522 23302 3803 27292 24957 10802 31657 28367 20899 9950 2624 17393 7639 15680 5822 9860
is_linear=0
shrinkage=0.01


Tree=14
num_leaves=35
num_cat=0
split_feature=10 1 3 1 1 0 10 1 0 8 3 3 5 3 0 0 9 0 0 0 8 1 3 4 1 0 4 0 2 4 0 2 3 10
split_gain=18810.3 9502.78 5504.13 4653.46 3763.73 2890.45 1674.51 1332.59 1050.09 895.133 780.565 757.963 705.091 581.587 571.771 508.713 340.805 315.076 305.81 300.578 276.39 274.412 255.979 242.278 240.79 224.763 231.771 224.354 217.497 188.355 183.947 180.177 171.254 166.265
threshold=0.45000000000000007 0.95024752475247531 0.61034790365744884 0.97700845665961955 0.44562647754137119 0.054750237777959593 0.90000000000000013 0.74543037554004665 0.020453461863399396 inf 0.63202878992352685 0.95861872146118732 1.0000000180025095e-35 1.0000000180025095e-35 0.033812353157901466 0.055631090137318435 inf 0.13032030469210309 0.19187997162515322 0.65795067160801401 inf 0.86391694725028068 0.89687399291008718 8.5000000000000018 0.97700845665961955 0.01679836875521892 48.500000000000007 0.030396325291962113 6.5000000000000009 10.500000000000002 0.033226780471309045 8.5000000000000018 0.96323330629899984 0.7333333333333335
decision_type=2 2 8 2 2 2 2 2 2 8 8 8 10 10 2 2 8 2 2 2 8 2 10 8 2 2 8 2 2 8 2 2 10 2
left_child=1 4 5 6 13 27 25 14 -6 -7 17 15 19 30 -8 -5 23 -3 -13 -10 -17 29 -18 -9 -12 -4 -27 -2 -15 -14 -1 -11 -20 -33
right_child=2 10 3 11 8 9 7 16 12 31 24 18 21 28 -16 20 22 -19 32 -21 -22 -23 -24 -25 -26 26 -28 -29 -30 -31 -32 33 -34 -35
leaf_value=-0.0021185267866237196 0.0083921977304053028 0.0086343818410993221 0.011522227635576896 0.013504736084129386 -0.00019763888521460667 -0.013128469017274991 0.0088025079911925493 -0.006441137648241866 -0.0045314183549717826 -0.0068425963005961047 0.0051661162408057626 0.016794166633156894 -0.011375654564616715 -0.014320831072724416 0.003172282504673456 -0.0031069892252942933 -0.00024382095183839888 -0.0049798300357984469 0.0090281978513815503 0.0033762470419447161 0.0077666428215838476 -0.0022619567448025025 -0.0051877449252634546 0.0091974029786687922 0.014107739613993872 0.0050191702846486275 0.0092844680709084013 0.0017739254170974798 -0.010019833868925685 -0.0077163474697492596 -0.0092088317321034723 0.0013762036960147394 0.016336330209723849 -0.004187599901685198
leaf_weight=494.64052686095238 1758.2143264859915 303.66359271109104 1857.8087616860867 891.35530945658684 4030.9446680694818 1502.8126941621304 3102.6521527320147 121.55674876272678 8789.6585979610682 1452.7173898667097 346.53515739738941 4304.9019741564989 2136.8296187371016 6404.3195701092482 4310.6736309975386 417.3043966293335 4906.6337180882692 385.86149080097675 961.57474222779274 508.27685070037842 530.99660423398018 677.44907584786415 1331.5420651435852 532.35216750204563 2327.2247867137194 2219.783697873354 2995.906274586916 723.42087689042091 1443.7183769792318 4132.4868912100792 1410.8813157230616 790.76263117790222 482.46185646951199 1672.4921343177557
leaf_count=1979 7055 1220 7468 3606 16127 6061 12447 487 35184 5820 1389 17480 8587 25842 17249 1671 19628 1545 3869 2035 2132 2711 5329 2137 9413 8886 12013 2895 5815 16563 5660 3165 1953 6695
internal_value=0 -0.0054367 0.00492434 0.0069422 -0.00722203 -0.00247416 0.00455416 0.00258606 -0.00476645 -0.00656754 0.0105031 0.0136696 -0.00590008 -0.0123265 0.00552889 0.00808087 -0.000579209 0.00101474 0.0154576 -0.004099 0.00298077 -0.00831052 -0.00129933 0.00628825 0.0129495 0.00853421 0.00746949 0.00646346 -0.0135299 -0.0089639 -0.00736904 -0.00404916 0.0114715 -0.0024011
internal_weight=0 33392.5 36867.9 28967.5 30029.2 7900.42 21378.9 14305.4 20275.6 5418.78 3363.29 7588.59 16244.7 9753.56 7413.33 1839.66 6892.08 689.525 5748.94 9297.94 948.301 6946.77 6238.18 653.909 2673.76 7073.5 5215.69 2481.64 7848.04 6269.32 1905.52 3915.97 1444.04 2463.25
internal_count=282116 134070 148046 116355 120503 31691 85644 57277 81207 21741 13567 30711 65080 39296 29696 7409 27581 2765 23302 37219 3803 27861 24957 2624 10802 28367 20899 9950 31657 25150 7639 15680 5822 9860
is_linear=0
shrinkage=0.01


Tree=15
num_leaves=35
num_cat=0
split_feature=10 1 4 1 1 0 10 1 8 0 0 5 4 4 0 9 2 0 4 0 1 1 1 6 6 0 4 9 6 0 4 5 9 0
split_gain=18446.5 9320.16 4723.05 3698.16 3593.84 3176.8 1388.97 1064.15 1054.25 1030.1 840.476 675.904 566.91 565.095 458.329 455.264 430.202 328.233 324.19 299.755 269.114 268.043 238.288 231.384 226.978 225.862 224.636 200.611 189.087 175.128 174.078 162.711 160.452 160.216
threshold=0.45000000000000007 0.95024752475247531 10.500000000000002 0.44562647754137119 0.97700845665961955 0.044268072076603361 0.90000000000000013 0.7373530914665305 inf 0.022027413182479857 0.089908413115556196 1.0000000180025095e-35 1.0000000180025095e-35 9.5000000000000018 0.026881930268567507 inf 9.5000000000000018 0.095808675414885622 50.500000000000007 0.65795067160801401 0.95861872146118732 0.8527000964320155 0.97014260249554385 inf inf 0.022027413182479857 48.500000000000007 1.0000000180025095e-35 1.0000000180025095e-35 0.033226780471309045 12.500000000000002 inf 1.0000000180025095e-35 0.18388396343103577
decision_type=2 2 8 2 2 2 2 2 8 2 2 10 10 8 2 8 2 2 10 2 2 2 2 8 8 2 8 10 10 2 8 8 10 2
left_child=1 3 5 12 6 20 25 14 -7 28 -6 19 29 17 -8 -9 31 -3 -17 -11 -2 30 -15 -14 27 -4 -27 -10 -5 -1 -13 -12 -16 -24
right_child=2 13 4 9 10 8 7 15 24 11 16 21 23 22 32 18 -18 -19 -20 -21 -22 -23 33 -25 -26 26 -28 -29 -30 -31 -32 -33 -34 -35
leaf_value=-0.0022559518197653415 0.0053337803276139661 0.010732360816845617 0.011089749699426782 0.0011569395676161263 0.015729050925540257 -0.012183018362339123 0.0091778591625409339 0.0090472716476728034 -0.0049633841700150172 -0.004558765834816781 0.00072064352633902356 -0.011050221451585344 -0.014291335599154478 0.0037870827571880755 0.0033586855125766874 -0.001023778414526839 0.011483221714564253 -0.0035736957342506702 0.016851874513495214 0.0033428213314946748 0.012094353041416997 -0.0027166889684308022 0.015262967495749217 -0.010044578805172856 0.00017425937485849661 0.0045203933104129186 0.0090116306500344079 0.0092999932526712358 -0.003189013861358646 -0.0091390708583620715 -0.0075880995829001154 0.009785004947060142 0.013457208132011629 0.0097456872234724205
leaf_weight=500.60367245972157 2262.238324701786 267.82288813591003 2199.627871721983 2784.5016547888517 4389.910990729928 1654.0782229602337 2424.334718644619 517.80953153967857 2938.6221479326487 8614.3685906529427 685.15106466412544 2446.2066269665956 6202.5001504272223 284.31275987625122 4147.4972791224718 5971.5129624158144 1992.1712919771671 399.32021830976009 103.10440418124199 508.22690840065479 796.62950280308723 767.84854634106159 1626.8267964273691 1621.4134860336781 1593.1366695165634 1871.4575678110123 2755.8188333213329 101.89459374547005 1562.899937659502 1418.3279563486576 3587.3286641687155 278.61620789766312 163.53458140790462 781.16899846494198
leaf_count=2003 9068 1079 8846 11141 17845 6671 9734 2080 11773 34487 2757 9838 25076 1139 16597 23890 8045 1600 414 2035 3214 3073 6591 6524 6378 7492 11054 409 6252 5693 14381 1122 657 3158
internal_value=0 -0.00538539 0.00487788 -0.00715341 0.00696508 -0.00126322 0.00478253 0.00290353 -0.00532961 -0.00471979 0.0129531 -0.00589763 -0.0122167 0.01041 0.00569904 4.72122e-05 0.00882964 0.00216868 -0.000719938 -0.00411842 0.00709512 -0.00828382 0.0124516 -0.0134115 -0.00288272 0.00845055 0.00719555 -0.00448477 -0.000405247 -0.00734416 -0.00899209 0.00334285 0.0037423 0.013474
internal_weight=0 33373.7 36847.1 30014.2 27500.5 9346.6 20154.7 13327.8 6287.73 20271.4 7345.85 15924 9742.85 3359.45 6735.37 6592.43 2955.94 667.143 6074.62 9122.6 3058.87 6801.38 2692.31 7823.91 4633.65 6826.9 4627.28 3040.52 4347.4 1918.93 6033.54 963.767 4311.03 2408
internal_count=282116 134070 148046 120503 110533 37513 80764 53372 25231 81207 29769 63814 39296 13567 26988 26384 11924 2679 24304 36522 12282 27292 10888 31600 18560 27392 18546 12182 17393 7696 24219 3879 17254 9749
is_linear=0
shrinkage=0.01


Tree=16
num_leaves=35
num_cat=0
split_feature=1 3 0 1 0 4 2 3 0 9 9 0 6 8 6 3 8 3 6 9 9 1 9 2 4 8 2 6 8 8 9 1 2 3
split_gain=13503.8 7961.56 4965.68 3881.89 2339.36 1617.36 975.284 904.035 694.34 564.028 557.063 547.486 537.493 485.333 438.536 432.323 427.677 411.514 346.42 318.642 261.812 255.606 247.938 223.041 209.572 207.399 202.197 194.413 191.123 163.985 156.752 156.706 154.197 153.163
threshold=0.96449579831932786 0.66797900262467202 0.022027413182479857 0.40224719101123602 0.076639793741492018 11.500000000000002 4.5000000000000009 1.0000000180025095e-35 0.65795067160801401 1.0000000180025095e-35 1.0000000180025095e-35 0.089908413115556196 1.0000000180025095e-35 inf inf 0.96323330629899984 inf 0.087922705314009683 inf 1.0000000180025095e-35 1.0000000180025095e-35 0.9826073805202663 1.0000000180025095e-35 9.5000000000000018 54.500000000000007 1.0000000180025095e-35 27.500000000000004 1.0000000180025095e-35 inf 1.0000000180025095e-35 1.0000000180025095e-35 0.70647653000594191 9.5000000000000018 0.56440422322775274
decision_type=2 8 2 2 2 8 2 10 2 10 10 2 10 8 8 10 8 10 8 10 10 2 10 2 10 8 2 10 8 8 8 2 2 10
left_child=2 4 6 7 -2 12 17 -4 10 14 18 21 30 -6 29 16 -13 -1 -7 24 28 26 25 -18 27 -19 -3 31 -14 -9 -5 -8 -15 -16
right_child=1 11 3 5 13 8 19 9 -10 -11 -12 15 20 32 33 -17 23 22 -20 -21 -22 -23 -24 -25 -26 -27 -28 -29 -30 -31 -32 -33 -34 -35
leaf_value=0.003984403301397709 0.0089682836398244491 0.013544022950448237 -0.0035595307570710057 -0.010437062046145529 -0.013444878777363858 -0.0031008813814261387 0.0062191588828200486 -0.016198907770376282 0.0064551612944118396 0.0044963867350351757 0.0086872744748731565 -0.0010754858708450494 -0.01401924053635524 -0.0085448018276593311 -0.01099244359481601 0.016105771034611339 0.0057684954266439461 -0.014265247988383556 -0.00056323583126826791 0.010912791813134986 0.003318472413839067 0.015894292949985449 0.0072355125194221203 0.012123156266906592 0.01697917300510304 -0.0048446704025396845 -0.0018348401412377618 0.0019348891521352733 -0.0081466282834592417 -0.012019943604460464 -0.0030255550946346622 0.0031461238624880296 -0.0023671174558643894 -0.0046756598284662838
leaf_weight=639.38193495571613 1097.3966967016459 203.55331191420555 2015.8068583458662 307.4045217782259 1098.7189009189606 8944.3263468742371 3300.0983697921038 1192.3205727636814 1204.6992520093918 224.80494019389153 541.64277344942093 391.01261262595654 667.55975286662579 683.07909366488457 612.53354638814926 1061.3487120419741 803.10757754743099 284.54510217905045 13500.353033393621 657.86243769526482 176.06954769790173 5703.9380315989256 142.48160941898823 1776.0315401703119 118.36886873841286 1311.6428688317537 147.13292343914509 4256.2566439062357 3287.3082859367132 4472.5507505685091 3993.0359916239977 3342.4319223463535 990.67986045777798 1031.1875055879354
leaf_count=2564 4415 820 8087 1235 4439 35842 13243 4834 4827 903 2174 1568 2691 2737 2465 4310 3237 1150 54058 2645 706 23227 573 7176 476 5279 590 17068 13200 18074 16003 13389 3966 4145
internal_value=0 0.0088045 -0.00218534 -0.0039009 -0.00338885 -0.00225935 0.00296274 -0.00950861 -0.000944772 -0.0111003 -0.00133267 0.013483 -0.00603093 -0.00828053 -0.0115802 0.0106264 0.00866761 -0.00287403 -0.00157456 0.00415172 -0.00860722 0.0153846 -0.00539683 0.0101451 0.00374781 -0.00652545 0.00709018 0.00360386 -0.00913847 -0.0129 -0.00355581 0.00467307 -0.00488925 -0.00703075
internal_weight=0 13956 56224.7 42171.6 3869.87 32622.4 14053.1 9549.2 24191 7533.4 22986.3 10086.1 8431.38 2772.48 7308.59 4031.5 2970.15 2378.05 22444.7 11675 4130.94 6054.62 1738.67 2579.14 11017.2 1596.19 350.686 10898.8 3954.87 5664.87 4300.44 6642.53 1673.76 1643.72
internal_count=282116 56485 225631 169244 15557 130736 56387 38508 96901 30421 92074 40928 33835 11142 29518 16291 11981 9566 89900 46821 16597 24637 7002 10413 44176 6429 1410 43700 15891 22908 17238 26632 6703 6610
is_linear=0
shrinkage=0.01


Tree=17
num_leaves=35
num_cat=0
split_feature=10 1 3 1 1 0 10 1 0 8 3 1 3 5 3 0 0 0 0 0 0 8 6 6 0 0 6 1 4 0 0 3 3 2
split_gain=17970.2 9020.78 5234.47 4394.06 3294.62 2752.02 1614.98 1288.43 973.482 856.312 737.69 700.304 803.445 606.252 552.525 542.647 484.907 320.995 295.77 292.723 279.644 265.294 246.535 223.074 213.61 212.364 222.218 194.433 187.246 178.555 174.878 167.511 150.635 146.945
threshold=0.45000000000000007 0.91331186258722497 0.61034790365744884 0.97700845665961955 0.44562647754137119 0.054750237777959593 0.90000000000000013 0.74543037554004665 0.026415217248933379 inf 0.95861872146118732 0.96684981684981697 0.63202878992352685 1.0000000180025095e-35 1.0000000180025095e-35 0.033812353157901466 0.055631090137318435 0.13032030469210309 0.19187997162515322 0.0073785451190494459 0.65795067160801401 inf 1.0000000180025095e-35 inf 0.030396325291962113 0.01679836875521892 inf 0.8527000964320155 10.500000000000002 0.23127448994005759 0.033226780471309045 0.96323330629899984 0.98443367655966096 6.5000000000000009
decision_type=2 2 8 2 2 2 2 2 2 8 8 2 8 10 10 2 2 2 2 2 2 8 10 8 2 2 8 2 8 2 2 10 8 2
left_child=1 4 5 6 14 24 25 15 22 -7 16 -3 17 20 30 -8 -5 -13 -12 32 -10 -18 -6 33 -2 -4 -27 -21 -15 -11 -1 -20 -9 -16
right_child=2 11 3 10 8 9 7 19 13 29 18 12 -14 28 23 -17 21 -19 31 27 -22 -23 -24 -25 -26 26 -28 -29 -30 -31 -32 -33 -34 -35
leaf_value=-0.0020886298579245654 0.0082068439272623816 0.0016546810893846189 0.011288287508981927 0.013137295747857634 0.00065144322000982799 -0.012830258956388126 0.0086230491985400323 0.01366919727789251 -0.0048971136597157809 -0.001679098798709299 0.016434084236056384 0.0090572491853636479 0.013542116083591942 -0.01097845517366787 -0.014816670115965559 0.003136017364126031 -0.0031180976021732794 -0.0051863523386284629 0.0087718907149579011 0.00078218619787684743 0.0029339892783038315 0.0075406412381855284 -0.0040307293368972066 -0.0099124982824573375 0.0017470534658335841 0.0053803872987174574 0.0095170001861488492 -0.0028656699657142177 -0.0073173622045785269 -0.0059584270647164012 -0.0090033639259500878 0.016013996727892461 0.0028827544175650207 -0.010845649019802582
leaf_weight=494.60629579424858 1755.9274778068066 1120.7243753224611 1854.1178299039602 886.8154776096344 3111.1446273773909 1497.5445311814547 3099.0218972116709 158.5082069337368 7859.1188008487225 1848.1912915110588 4278.2508980482817 278.68761982023716 2415.6022136509418 2124.3104400336742 5049.4648069143295 4309.998081445694 417.09977297484875 365.69725254178047 959.30975395441055 2490.3748038709164 483.85397519171238 530.05855746567249 1760.8026345819235 1622.319189414382 723.21819086372852 2736.3720668554306 2475.7228976339102 3534.0554194301367 4095.3354130536318 2065.9191489815712 1409.0609503984451 480.15942330658436 707.72946685552597 1147.2210831940174
leaf_count=1979 7055 4487 7468 3606 12451 6061 12447 636 31470 7402 17480 1122 9813 8554 20482 17249 1671 1465 3869 9967 1938 2132 7047 6536 2895 10965 9934 14145 16427 8278 5660 1953 2833 4639
internal_value=0 -0.00531827 0.00481702 0.00678691 -0.00728801 -0.00240197 0.00446934 0.00253656 -0.0049103 -0.00639919 0.0133437 0.00841875 0.0108956 -0.00620482 -0.0120406 0.00543134 0.00782331 0.000972708 0.0151141 -0.000575867 -0.0044428 0.00284597 -0.00104061 -0.013217 0.00632294 0.00838041 0.0073456 -0.00135757 -0.00856812 -0.00393813 -0.00720752 0.0111893 0.00485901 -0.0140818
internal_weight=0 33337.9 36808.4 28917.6 29157.2 7890.8 21365.9 14299.7 19434.6 5411.65 7551.69 4180.71 3059.99 14562.6 9722.67 7409.02 1833.97 644.385 5717.72 6890.67 8342.97 947.158 4871.95 7819.01 2479.15 7066.21 5212.09 6024.43 6219.65 3914.11 1903.67 1439.47 866.238 6196.69
internal_count=282116 134070 148046 116355 117183 31691 85644 57277 77887 21741 30711 16887 12400 58389 39296 29696 7409 2587 23302 27581 33408 3803 19498 31657 9950 28367 20899 24112 24981 15680 7639 5822 3469 25121
is_linear=0
shrinkage=0.01


Tree=18
num_leaves=35
num_cat=0
split_feature=10 1 3 1 1 0 10 1 0 3 1 3 5 9 3 0 0 9 0 0 0 3 6 10 4 2 6 0 0 4 4 0 2 9
split_gain=17624.3 8847.49 5134.19 4323.49 3239.06 2698.53 1584.37 1263.22 954.769 727.002 688.44 789.801 595.149 555.291 544.178 532.568 476.778 326.565 314.771 292.619 274.129 252.044 241.644 238.813 231.239 228.136 219.998 209.61 208.846 218.74 184.105 172.142 161.765 159.13
threshold=0.45000000000000007 0.91331186258722497 0.61034790365744884 0.97700845665961955 0.44562647754137119 0.054750237777959593 0.90000000000000013 0.74543037554004665 0.026415217248933379 0.95861872146118732 0.96684981684981697 0.63202878992352685 1.0000000180025095e-35 1.0000000180025095e-35 1.0000000180025095e-35 0.033812353157901466 0.055631090137318435 inf 0.13032030469210309 0.26835195691108782 0.65795067160801401 0.89687399291008718 1.0000000180025095e-35 0.7333333333333335 8.5000000000000018 9.5000000000000018 inf 0.030396325291962113 0.01679836875521892 48.500000000000007 10.500000000000002 0.020806662345169879 6.5000000000000009 1.0000000180025095e-35
decision_type=2 2 8 2 2 2 2 2 2 8 2 8 10 8 10 2 2 8 2 2 2 10 10 2 8 2 8 2 2 8 8 2 2 10
left_child=1 4 5 6 14 27 28 15 22 16 -3 18 20 -7 31 -8 -5 24 -12 -11 -10 -19 -6 -15 -9 -18 -16 -2 -4 32 -14 -1 -30 -17
right_child=2 10 3 9 8 13 7 17 12 19 11 -13 30 23 26 33 25 21 -20 -21 -22 -23 -24 -25 -26 -27 -28 -29 29 -31 -32 -33 -34 -35
leaf_value=-0.00042057403154905748 0.0081291747419744674 0.0016381247194790663 0.011186219328160619 0.013028387057141093 0.00064493396514996601 -0.011818201279315352 0.008541580123042956 -0.0062846005344125572 -0.0048489354940880434 0.016130982431125648 0.0089724669926941267 0.013429743324904883 -0.010878580653835459 -0.00084520724303229519 -0.013964432254529893 0.0027142246170752823 -0.0031429851453598839 -0.00022739149138704219 -0.0051355122371659553 0.010473097341900854 0.002904952907172902 -0.0051338342424673312 -0.0039906449588598984 -0.0061018258502070991 0.0090021543915448574 0.0068585765338409523 -0.0098218080086913667 0.0017296099373053275 0.00065720306344763221 0.0090397667085399744 -0.0072469959171303664 -0.0084859648760883827 0.0066157220611147054 0.012568919941879194
leaf_weight=317.99672222137451 1754.982869297266 1120.7319452613592 1852.3350890874863 885.29483290016651 3111.121577039361 1378.1899345368147 3097.3038993477821 121.42689873278141 7857.8415053188801 4559.7336519062519 278.50960378348827 2411.4779956936836 2122.3857912123203 1255.9274876266718 6186.3544030189514 4139.1983453035355 382.40072554349899 4906.4246613234282 365.62573060393333 1145.7618587464094 483.80473844707012 1331.0932954996824 1760.7057813107967 2774.8438715487719 531.56666746735573 564.46413888037205 1620.9338365793228 723.20803667604923 641.23525238037109 2991.5293661952019 4093.7579001486301 1584.81222230196 1577.475523725152 170.59071975946426
leaf_count=1272 7055 4487 7468 3606 12451 5566 12447 487 31470 18663 1122 9813 8554 5036 25121 16563 1534 19628 1465 4639 1938 5329 7047 11139 2137 2269 6536 2895 2567 12013 16427 6367 6319 686
internal_value=0 -0.00526857 0.00477192 0.00672369 -0.00721951 -0.00237907 0.00442585 0.00251157 -0.00486245 0.013235 0.00834335 0.0108022 -0.00614483 -0.00633839 -0.0119357 0.00537844 0.00775282 -0.000570113 0.000963354 0.0149952 -0.00439907 -0.00127466 -0.00103023 -0.00446425 0.00615746 0.00281839 -0.0131046 0.00626214 0.00830091 0.00727475 -0.00848725 -0.0071387 0.00489419 0.00310481
internal_weight=0 33316.1 36785 28897.8 29139.7 7887.15 21360.2 14297.6 19429.6 7537.66 4176.35 3055.61 14557.8 5408.96 9710.1 7407.09 1832.16 6890.51 644.135 5705.5 8341.65 6237.52 4871.83 4030.77 652.994 946.865 7807.29 2478.19 7062.58 5210.24 6216.14 1902.81 2218.71 4309.79
internal_count=282116 134070 148046 116355 117183 31691 85644 57277 77887 30711 16887 12400 58389 21741 39296 29696 7409 27581 2587 23302 33408 24957 19498 16175 2624 3803 31657 9950 28367 20899 24981 7639 8886 17249
is_linear=0
shrinkage=0.01


Tree=19
num_leaves=35
num_cat=0
split_feature=10 1 3 1 1 0 10 1 0 3 3 5 9 3 0 0 0 1 0 0 0 0 1 10 2 6 3 0 6 0 0 9 6 0
split_gain=17285.4 8679.43 5036.14 4254.3 3414.77 2646.15 1554.44 1240.74 959.828 716.785 689.119 649.109 560.287 536.07 470.266 391.273 347.737 324.05 292.933 288.935 269.716 262.026 235.576 234.936 230.753 217.017 209.716 205.401 216.842 184.264 169.268 168.949 165.296 157.566
threshold=0.45000000000000007 0.94474969474969483 0.61034790365744884 0.97700845665961955 0.44562647754137119 0.052219794564660617 0.90000000000000013 0.65806129247168565 0.020453461863399396 0.96178188899707895 0.63202878992352685 1.0000000180025095e-35 1.0000000180025095e-35 1.0000000180025095e-35 0.052219794564660617 0.022864856912730182 0.026881930268567507 0.97014260249554385 0.08432313812249688 0.26835195691108782 0.65795067160801401 0.65795067160801401 0.8527000964320155 0.7333333333333335 9.5000000000000018 inf 0.98443367655966096 0.01679836875521892 inf 0.022027413182479857 0.033226780471309045 1.0000000180025095e-35 1.0000000180025095e-35 0.23127448994005759
decision_type=2 2 8 2 2 2 2 2 2 8 8 10 8 10 2 2 2 2 2 2 2 2 2 2 2 8 8 2 8 2 2 10 10 2
left_child=1 4 5 6 13 29 27 16 32 14 18 20 -7 30 -5 26 -8 -12 -3 -11 -10 -17 31 -14 -16 -15 -9 -4 -29 -2 -1 -13 -6 -25
right_child=2 10 3 9 8 12 7 15 11 19 17 22 23 25 24 21 -18 -19 -20 -21 -22 -23 -24 33 -26 -27 -28 28 -30 -31 -32 -33 -34 -35
leaf_value=-0.0020349719647563781 0.0087482114662206043 0.0096497741536705466 0.011085671757529572 0.013048411133022646 0.0012960078982792382 -0.011695332702195332 0.0097114680030249163 0.0093148151073415789 -0.0043749244087859206 0.016021160862870497 0.0034335625671067138 -0.0089441252826191336 -0.00078335633243529264 -0.013849014712187498 -0.0030099016166010416 -0.0016328646416367827 0.0043812873348708916 0.013424824329120226 -0.0037766886770340801 0.010387972232551682 0.0031417853892178023 0.0087547042461874509 -0.0027099220342267044 -0.0034412388813458679 0.0069179448874534914 -0.0097323410468416888 0.0020638589926679778 0.0052634254621967171 0.0093512983125878073 0.0031582876015321306 -0.0088392588244596212 0.0011052659969296736 -0.0029383513548366237 -0.0081914827402109966
leaf_weight=494.55362477898598 1384.572135463357 252.00142499804497 1850.4547974318266 872.09729029238224 2563.929790943861 1387.1753158122301 1940.8563579618931 476.41506165266037 8738.8379193246365 4535.0159243047237 376.57445421814919 5976.7041460722685 1277.8706773668528 6175.5869631171227 390.54043383896351 5853.3671429604292 3317.5628572255373 2369.1665143966675 457.00134678184986 1141.7201642841101 504.72261594235897 253.22531467676163 746.0119423866272 1319.8363981992006 583.88884706795216 1619.4844992011786 2453.5616325438023 2735.0048134177923 2473.1379179954529 1028.6531999409199 1407.3595893532038 171.90713539719582 1439.3095471262932 1485.6253354400396
leaf_count=1979 5572 1017 7468 3559 10260 5608 7807 1912 35002 18608 1509 24039 5124 25121 1567 23431 13281 9660 1831 4628 2022 1014 2987 5296 2349 6536 9832 10965 9934 4122 5660 689 5758 5969
internal_value=0 -0.0052195 0.00472738 0.00666135 -0.00695687 -0.00235631 0.00438296 0.00248692 -0.00460947 0.0131279 0.0097856 -0.00569672 -0.00620429 -0.0118324 0.00771407 0.000239417 0.00634897 0.0120551 0.000994767 0.0148886 -0.00396435 -0.00120182 -0.00801904 -0.00433841 0.00293805 -0.012994 0.00324349 0.00822257 0.00720493 0.00636611 -0.00707067 -0.00866298 -0.000226183 -0.00595728
internal_weight=0 33293.2 36760.6 28876.8 29838.4 7883.73 21353.6 14295 20141.4 7523.26 3454.74 16138.2 5470.51 9696.98 1846.53 9036.57 5258.42 2745.74 709.003 5676.74 9243.56 6106.59 6894.62 4083.33 974.429 7795.07 2929.98 7058.6 5208.14 2413.23 1901.91 6148.61 4003.24 2805.46
internal_count=282116 134070 148046 116355 120053 31691 85644 57277 80757 30711 14017 64739 21997 39296 7475 36189 21088 11169 2848 23236 37024 24445 27715 16389 3916 31657 11744 28367 20899 9694 7639 24728 16018 11265
is_linear=0
shrinkage=0.01


Tree=20
num_leaves=35
num_cat=0
split_feature=1 3 0 1 0 4 2 3 0 9 9 0 6 8 3 6 8 3 6 9 9 1 9 2 4 8 2 8 6 8 9 2 1 3
split_gain=12527.6 7433.48 4632.15 3635.32 2200.64 1521.22 913.014 855.059 662.667 541.104 536.296 528.69 521.928 464.207 418.32 415.59 405.04 382.842 327.444 309.151 252.118 241.808 236.977 219.371 202.701 198.561 197.118 186.108 182.918 159.65 150.834 150.818 150.571 146.6
threshold=0.96449579831932786 0.66797900262467202 0.022027413182479857 0.40224719101123602 0.076639793741492018 11.500000000000002 4.5000000000000009 1.0000000180025095e-35 0.65795067160801401 1.0000000180025095e-35 1.0000000180025095e-35 0.089908413115556196 1.0000000180025095e-35 inf 0.96323330629899984 inf inf 0.087922705314009683 inf 1.0000000180025095e-35 1.0000000180025095e-35 0.9826073805202663 1.0000000180025095e-35 9.5000000000000018 54.500000000000007 1.0000000180025095e-35 27.500000000000004 inf 1.0000000180025095e-35 1.0000000180025095e-35 1.0000000180025095e-35 9.5000000000000018 0.70647653000594191 0.56440422322775274
decision_type=2 8 2 2 2 8 2 10 2 10 10 2 10 8 10 8 8 10 8 10 10 2 10 2 10 8 2 8 10 8 8 2 2 10
left_child=2 4 6 7 -2 12 17 -4 10 15 18 21 30 -6 16 29 -13 -1 -7 24 27 26 25 -18 28 -19 -3 -14 32 -9 -5 -15 -8 -17
right_child=1 11 3 5 13 8 19 9 -10 -11 -12 14 20 31 -16 33 23 22 -20 -21 -22 -23 -24 -25 -26 -27 -28 -29 -30 -31 -32 -33 -34 -35
leaf_value=0.0038338207725456671 0.0087221121911400003 0.013244598222630079 -0.0034136915185836777 -0.010154642959890388 -0.013094819401981346 -0.0030003218696362474 0.0060387479748674486 -0.01578472352107483 0.0063331325953978118 0.0045356708233079083 0.0085591056345798652 -0.0011715141741431105 -0.013725897592078326 -0.0083319773710396304 0.015655299223751945 -0.010677230801344645 0.0054088809315247042 -0.013924967469725918 -0.00053221108798724389 0.010691285752685019 0.0033295678489732041 0.015432261210054726 0.0071434682725100727 0.011724565079642858 0.016658429986573738 -0.004683343209956981 -0.0019569824382985003 -0.0079208617622895123 0.001864042891101162 -0.011647486600483089 -0.0028756124625353482 -0.0022196943655216524 0.0030247061623552584 -0.0044885467388170869
leaf_weight=638.59324850142002 1094.5477609485388 202.807517811656 2012.7951454520226 306.62748175859451 1093.636466473341 8936.2142807096243 3294.7393539398909 1183.8661671131849 1203.6608180850744 224.34859244525433 540.99329596757889 390.58164648711681 665.05830675363541 682.33652526140213 1052.9754608422518 610.59099073708057 799.98204633593559 282.94834193587303 13492.900959953666 656.26209290325642 175.92671246826649 5653.0228870362043 142.08868432044983 1766.6626008749008 118.00262521207333 1307.5116734951735 146.95166763663292 3280.7972843796015 4251.0240929722786 4448.4338406324387 3989.0128197818995 990.08549137413502 3340.0784961134195 1028.9028475284576
leaf_count=2564 4415 820 8087 1235 4439 35842 13243 4834 4827 903 2174 1568 2691 2737 4310 2465 3237 1150 54058 2645 706 23227 573 7176 476 5279 590 13200 17068 18074 16003 3966 13389 4145
internal_value=0 0.00850906 -0.00210299 -0.00376142 -0.00327909 -0.00217412 0.00287298 -0.00920161 -0.000899198 -0.0107555 -0.00127825 0.0130542 -0.00583535 -0.00802855 0.0102415 -0.0112275 0.00831304 -0.00278338 -0.00151561 0.00402332 -0.00837756 0.0149328 -0.00522305 0.00975674 0.00362547 -0.00632886 0.00685605 -0.00889985 0.00348395 -0.0125175 -0.00339565 -0.00471441 0.00452165 -0.0067945
internal_weight=0 13873.6 56131.4 42100.1 3860.61 32591.2 14031.2 9508.94 24173.8 7496.14 22970.1 10013 8417.42 2766.06 4010.2 7271.79 2957.23 2371.14 22429.1 11660.1 4121.78 6002.78 1732.55 2566.64 11003.8 1590.46 349.759 3945.86 10885.8 5632.3 4295.64 1672.42 6634.82 1639.49
internal_count=282116 56485 225631 169244 15557 130736 56387 38508 96901 30421 92074 40928 33835 11142 16291 29518 11981 9566 89900 46821 16597 24637 7002 10413 44176 6429 1410 15891 43700 22908 17238 6703 26632 6610
is_linear=0
shrinkage=0.01


Tree=21
num_leaves=35
num_cat=0
split_feature=10 1 3 1 1 0 10 1 0 8 3 1 3 6 3 0 0 9 0 0 0 8 0 3 6 4 6 4 2 4 0 10 9 2
split_gain=16843.5 8410.5 4860.79 4081.42 3078.07 2562.98 1526.21 1224.03 903.231 781.027 701.997 649.747 748.686 521.922 518.188 506.808 455.556 318.14 299.809 284.283 280.645 266.17 262.794 247.166 230.523 224.028 210.549 198.185 209.23 180.128 164.217 162.012 153.515 144.359
threshold=0.45000000000000007 0.91331186258722497 0.61034790365744884 0.97700845665961955 0.44562647754137119 0.065312742584724734 0.90000000000000013 0.74543037554004665 0.026415217248933379 inf 0.96178188899707895 0.96684981684981697 0.63202878992352685 inf 1.0000000180025095e-35 0.033812353157901466 0.052219794564660617 inf 0.13769104121630868 0.26835195691108782 0.032034403641068333 inf 0.65795067160801401 0.89687399291008718 1.0000000180025095e-35 8.5000000000000018 inf 48.500000000000007 5.5000000000000009 12.500000000000002 0.036185763167740144 0.7333333333333335 1.0000000180025095e-35 6.5000000000000009
decision_type=2 2 8 2 2 2 2 2 2 8 8 2 8 8 10 2 2 8 2 2 2 8 2 10 10 8 8 8 2 8 2 2 10 2
left_child=1 4 5 6 14 20 27 15 24 -7 16 -3 18 29 30 -8 -5 25 -13 -12 -2 -18 -15 -19 -6 -9 33 28 -4 -10 -1 -11 -17 -16
right_child=2 11 3 10 8 9 7 17 13 31 19 12 -14 22 26 32 21 23 -20 -21 -22 -23 -24 -25 -26 -27 -28 -29 -30 -31 -32 -33 -34 -35
leaf_value=-0.0022423345857847895 0.0078475884868360723 0.0016296106217599301 0.001520742602195385 0.012823206044505707 0.00060176179396656385 -0.012651192033103789 0.0083751990538362738 -0.0061773875442114887 -0.010073681063219287 -0.0010203853167716638 0.015796029964110163 0.0085540959150670857 0.013108278916180102 -0.0047053099986966952 -0.014386925282964995 0.0026858978267948058 -0.0030605977057771823 -0.00022823481072643749 -0.0051751274613209396 0.010199673443559655 0.0010201938086876452 0.0074758358447808062 0.003134527071276733 -0.0050875381496055683 -0.0039263086018567119 0.0088758616294176834 -0.0095968738784782143 0.0096527135604162588 0.0076772078718794672 -0.0067271754623558656 -0.0088078202164609629 -0.0054633851921227217 0.012373137337948408 -0.010439940111656913
leaf_weight=528.05714994668961 1810.2523713707924 1120.5484736859798 714.82954879105091 868.51192513108253 3110.6397556066513 1450.2860574126244 3093.1188192814589 121.32355244457722 2660.9958793371916 1225.9727429151535 4511.9876465946436 287.38453358411789 2398.0803438276052 7351.3401994109154 5014.3083243072033 4138.7980158478022 426.49314729869366 4906.1532800942659 355.89906357228756 1138.7245993465185 902.66119186580181 547.09565854072571 453.74488623440266 1330.7160628139973 1760.3441690206528 530.96768514811993 1617.0347261726856 3907.9339325726032 2430.9985384196043 4078.750800833106 1372.5213665217161 2486.778312548995 170.30127531290054 1141.0466549247503
leaf_count=2114 7287 4487 2867 3559 12451 5901 12447 487 10735 4914 18608 1160 9813 29461 20482 16563 1710 19628 1427 4628 3616 2206 1819 5329 7047 2137 6536 15731 9769 16374 5525 9973 686 4639
internal_value=0 -0.00515562 0.00466953 0.00657108 -0.007058 -0.00229291 0.00434205 0.00246333 -0.00476184 -0.00642806 0.0129208 0.00814031 0.0105386 -0.00601002 -0.0116667 0.00528664 0.00755808 -0.000570127 0.000957174 0.0146686 0.00557642 0.00285935 -0.00424938 -0.00126525 -0.0010345 0.00607397 -0.0128114 0.00814822 0.00627868 -0.00804873 -0.0069844 -0.00399662 0.00306926 -0.0136556
internal_weight=0 33250.7 36713.9 28838 29088.8 7875.95 21345.1 14291.4 19415.8 5163.04 7492.81 4161.91 3041.36 14544.8 9672.97 7402.22 1842.1 6889.16 643.284 5650.71 2712.91 973.589 7805.09 6236.87 4870.98 652.291 7772.39 7053.76 3145.83 6739.75 1900.58 3712.75 4309.1 6155.35
internal_count=282116 134070 148046 116355 117183 31691 85644 57277 77887 20788 30711 16887 12400 58389 39296 29696 7475 27581 2587 23236 10903 3916 31280 24957 19498 2624 31657 28367 12636 27109 7639 14887 17249 25121
is_linear=0
shrinkage=0.01


Tree=22
num_leaves=35
num_cat=0
split_feature=1 3 0 1 0 4 2 3 0 0 9 6 9 8 3 6 8 3 9 6 9 9 1 2 0 6 8 8 2 2 2 3 9 3
split_gain=12071.5 7180.73 4480.42 3490.85 2127.73 1464.97 902.018 820.97 650.237 519.132 512.808 504.883 503.836 449.288 411.086 394.458 390.983 383.21 319.878 308.687 246.074 239.166 235.856 216.49 206.708 237.013 203.599 180.903 166.775 153.273 147.82 147.678 146.289 143.402
threshold=0.96449579831932786 0.66797900262467202 0.022864856912730182 0.40224719101123602 0.076639793741492018 11.500000000000002 4.5000000000000009 0.067231638418079109 0.65795067160801401 0.089908413115556196 1.0000000180025095e-35 1.0000000180025095e-35 1.0000000180025095e-35 inf 0.96323330629899984 inf inf 0.087922705314009683 1.0000000180025095e-35 inf 1.0000000180025095e-35 1.0000000180025095e-35 0.98749804656977658 9.5000000000000018 1.0000000180025095e-35 1.0000000180025095e-35 1.0000000180025095e-35 inf 27.500000000000004 5.5000000000000009 9.5000000000000018 0.16271373414230558 1.0000000180025095e-35 0.96323330629899984
decision_type=2 8 2 2 2 8 2 10 2 2 10 10 10 8 10 8 8 10 10 8 10 10 2 2 2 10 8 8 2 2 2 10 8 8
left_child=2 4 6 7 -2 11 17 -4 10 22 19 32 15 -6 16 29 -11 -1 24 -7 26 27 28 -18 -8 -26 -19 -13 -3 -9 -15 -27 -5 -24
right_child=1 9 3 5 13 8 18 12 -10 14 -12 21 -14 30 -16 -17 23 20 -20 -21 -22 -23 33 -25 25 31 -28 -29 -30 -31 -32 -33 -34 -35
leaf_value=0.003725114827060848 0.0085876950373536196 0.013070735816623512 -0.0034305766197927196 -0.010048477972018795 -0.012889669278750213 -0.0029719595083372717 0.010172106862841274 -0.013312289582415258 0.0062550435876266887 -0.0011719279509282371 0.0084053679447800567 -0.013581427325473136 0.0042929992197530435 -0.0082194813319198708 0.015439807236285295 -0.0067443575913844599 0.0052460384276185523 -0.013805649992754819 0.010575371029378628 -0.00056132556354113162 0.0072930317587260656 0.0032148086801676544 0.012118473269819779 0.011527177887324176 0.0043593925415293059 0.003667322534478957 -0.0046405495678874644 -0.0078297951580497127 -0.00042387390134956639 -0.009429345259036364 -0.0021667563188854043 -0.00017239522544191927 -0.0028509678010311796 0.016052894773451044
leaf_weight=660.15317276120186 1092.9905577450991 202.34762808680534 2007.9975782036781 304.21031740307808 1090.2344160079956 8829.3738892227411 441.37847816944122 4193.0913349986076 1203.1045956015587 390.43289370834827 532.76804848015308 658.46560940146446 218.9514227360487 681.87966440618038 1048.2269096523523 1610.8020049780607 798.43931177258492 295.27627100050449 669.73737919330597 13337.286942869425 145.17412184178829 172.85890981554985 1176.9578762799501 1761.345845207572 6696.3284977972507 1645.0513655990362 1357.0259387791157 3250.2272249013186 166.96889492869377 1346.4484485387802 989.84210287034512 2559.5869879126549 3949.4449211657047 4427.3219566196203
leaf_count=2652 4415 820 8074 1227 4439 35428 1778 17128 4827 1568 2143 2671 882 2737 4310 6503 3237 1204 2703 53445 586 694 4826 7176 26893 6602 5486 13092 673 5477 3966 10285 15851 18318
internal_value=0 0.00836893 -0.0020631 -0.00372975 -0.00322134 -0.00216764 0.00273012 -0.00909988 -0.000908745 0.0128495 -0.00128851 -0.00577753 -0.0106445 -0.00789504 0.0100594 -0.011102 0.00814692 -0.00278943 0.00385949 -0.00152158 -0.00518264 -0.00829018 0.0147168 0.00956866 0.00346276 0.00319092 -0.00627975 -0.0087993 0.00696862 -0.0123689 -0.00463655 0.0013297 -0.00336617 0.015227
internal_weight=0 13827 56084.7 41615 3854.95 32237.7 14469.7 9377.29 23902.5 9972.04 22699.4 8335.21 7369.29 2761.96 3998.44 7150.34 2950.22 2457.63 12012.1 22166.7 1797.48 4081.55 5973.6 2559.79 11342.3 10901 1652.3 3908.69 369.317 5539.54 1671.72 4204.64 4253.66 5604.28
internal_count=282116 56485 225631 167442 15557 129378 58189 38064 95843 40928 91016 33535 29990 11142 16291 29108 11981 9928 48261 88873 7276 16457 24637 10413 45558 43780 6690 15763 1493 22605 6703 16887 17078 23144
is_linear=0
shrinkage=0.01


Tree=23
num_leaves=35
num_cat=0
split_feature=10 1 3 1 1 10 8 1 5 3 1 3 3 9 1 2 9 4 2 4 6 9 4 2 6 8 3 3 2 4 8 2 9 6
split_gain=16414.2 8143.29 4692.07 3918.71 2977.33 1498.61 1295.11 1209.12 738.012 684.579 627.262 722.231 501.063 365.577 345.63 343.466 323.885 303.233 278.755 211.959 205.111 201.109 192.619 201.267 175.482 152.505 150.059 143.527 127.305 126.698 121.768 113.534 109.622 107.984
threshold=0.45000000000000007 0.91331186258722497 0.61034790365744884 0.97700845665961955 0.44562647754137119 0.90000000000000013 inf 0.65806129247168565 1.0000000180025095e-35 0.95861872146118732 0.96684981684981697 0.63202878992352685 1.0000000180025095e-35 inf 0.8527000964320155 9.5000000000000018 1.0000000180025095e-35 10.500000000000002 8.5000000000000018 12.500000000000002 1.0000000180025095e-35 1.0000000180025095e-35 48.500000000000007 5.5000000000000009 inf inf 0.98332870241733827 0.21483516483516488 5.5000000000000009 25.500000000000004 inf 10.500000000000002 1.0000000180025095e-35 1.0000000180025095e-35
decision_type=2 2 8 2 2 2 8 2 10 8 2 8 10 8 2 2 10 8 2 8 10 10 8 2 8 8 10 10 2 10 8 2 10 10
left_child=1 4 6 5 12 22 -2 21 27 15 31 -12 -1 17 -15 25 19 -9 -8 -10 28 30 23 32 29 -5 -11 -6 -14 -20 -7 -3 -4 -21
right_child=2 10 3 9 8 7 18 13 16 26 11 -13 20 14 -16 -17 -18 -19 24 33 -22 -23 -24 -25 -26 -27 -28 -29 -30 -31 -32 -33 -34 -35
leaf_value=-0.0069002846013646018 -0.0095905121709578371 0.010287764786712558 0.00014168024483611518 -0.0033921896688879015 -0.0024197604388161899 -7.3887270860604175e-05 -0.0028112387848449223 -0.0031699840565900406 -0.0093945915377034016 0.012951447783173276 0.00095883386173234019 0.012903099931056329 -0.01182312948028484 0.0014289717990799923 -0.0027094554257039295 0.010591587681579227 0.0028361723782164357 0.0099177137344459518 -0.00041157361707662703 -0.0039042450735474821 -0.013907608524904413 0.013929777791324472 0.0095585306983026527 0.0076034669949754923 0.0043369833713674125 0.0063567602898094572 0.016233134508894364 -0.0052382032074942235 -0.0071407988809800375 0.015571598141663048 0.0061780589958337715 0.00044401835325582061 0.012353696973529298 -0.0070647713561396101
leaf_weight=1899.161805704236 1833.761170655489 132.88415284454823 631.66366404294968 319.59527839720249 8725.8640131950378 333.82373182475567 2220.1653620302677 244.058055087924 3086.4932094961405 3075.6283836066723 642.65660521388054 2388.3356550186872 2142.4961545318365 4461.067582115531 3684.8632750809193 1180.1596159934998 325.56596583127975 643.13997226953506 2281.3037191480398 1588.0808257460594 4806.3799014389515 320.65228147804737 3904.5133466422558 2429.4396433383226 1481.46871265769 321.93951009213924 2562.8020845651627 2279.9339658766985 799.19187247753143 50.597476780414581 4599.3003887236118 987.56606808304787 83.113343372941017 3400.8483039587736
leaf_count=7639 7466 532 2532 1293 34955 1339 8919 980 12461 12674 2587 9813 8728 17870 14747 4808 1304 2592 9158 6372 19688 1296 15731 9769 5943 1308 10628 9141 3241 205 18453 3955 335 13654
internal_value=0 -0.00509291 0.00461288 0.00648278 -0.00696487 0.00430131 -0.00223115 0.00243962 -0.00470772 0.0127214 0.00800767 0.010371 -0.0115052 0.000220866 -0.000442959 0.00739023 -0.00693984 0.00631636 5.52203e-06 -0.00733412 -0.0126337 0.00625418 0.0080745 0.00623106 0.00164575 0.00149877 0.0144435 -0.00300376 -0.0105517 -6.36899e-05 0.0057548 0.00161318 0.00156461 -0.00605901
internal_weight=0 33205.5 36663.1 28795.8 29054 21335.6 7867.3 14286.9 19406.8 7460.12 4151.44 3030.99 9647.23 9033.13 8145.93 1821.69 8400.99 887.198 6033.54 8075.42 7748.07 5253.78 7048.73 3144.22 3813.37 641.535 5638.43 11005.8 2941.69 2331.9 4933.12 1120.45 714.777 4988.93
internal_count=282116 134070 148046 116355 117183 85644 31691 57277 77887 30711 16887 12400 39296 36189 32617 7409 33791 3572 24225 32487 31657 21088 28367 12636 15306 2601 23302 44096 11969 9363 19792 4487 2867 20026
is_linear=0
shrinkage=0.01


Tree=24
num_leaves=35
num_cat=0
split_feature=10 1 4 1 1 0 10 1 0 8 0 1 5 4 4 0 2 9 0 4 6 0 1 6 5 4 6 9 0 4 9 0 0 2
split_gain=16099.6 7989.25 4066.08 3021.11 2875.61 2774.92 1227.65 982.378 953.275 947.911 743.228 722.083 651.871 547.437 464.716 412.233 396.454 382.283 298.217 296.555 237.84 236.259 230.109 213.762 191.371 189.812 189.68 182.749 182.526 177.531 152.653 147.935 141.926 138.58
